// Save Brain
JSON.stringify(game.ai.brain.value_net.toJSON());

// ----- Brain 01 -----
// 200,000 games, 16+ hours, av. points: 30
game.ai.brain.value_net.fromJSON(JSON.parse('{"layers":[{"out_depth":174,"out_sx":1,"out_sy":1,"layer_type":"input"},{"out_depth":50,"out_sx":1,"out_sy":1,"layer_type":"fc","num_inputs":174,"l1_decay_mul":0,"l2_decay_mul":1,"filters":[{"sx":1,"sy":1,"depth":174,"w":{"0":0.02541095463327524,"1":0.1356656019175895,"2":0.07770998592785623,"3":0.04649837201562542,"4":-0.13134065440062404,"5":-0.062423386813445475,"6":-0.030698816963308704,"7":0.1331607889454589,"8":-0.052527300679178025,"9":-0.011207725738351262,"10":0.0003428588340875046,"11":0.08146312774692419,"12":-0.09552820673559373,"13":0.08742367080458621,"14":-0.07904831436760199,"15":0.055522304985350386,"16":0.2016274669329382,"17":0.017761218909574047,"18":-0.04756332919731947,"19":0.0949925571047317,"20":0.017942726456947625,"21":0.049685350151717836,"22":0.07098424778221699,"23":0.06421246097726051,"24":0.027914024475839044,"25":-0.033246576846115546,"26":-0.242511790639506,"27":0.11207823846925728,"28":0.010090246173513421,"29":0.012957935603579444,"30":-0.5362962027114035,"31":0.11754918298901139,"32":-0.05674012725274282,"33":0.2484792636544585,"34":-0.18629839315082633,"35":-0.030804778574962454,"36":0.007019376121635382,"37":0.08191609137369986,"38":-0.17880489275109063,"39":1.5500050391985656,"40":-0.7254060979684234,"41":-0.12041771634036762,"42":-0.29458885931045936,"43":0.05122029625929703,"44":0.1495676080489976,"45":-0.14888850418418179,"46":-0.11633555077064366,"47":0.2011351036526148,"48":0.42887272010971467,"49":0.07259509958906875,"50":-0.34133774925884025,"51":-0.12699094185632911,"52":0.027724651491148937,"53":0.005372788526102946,"54":0.09255560828148768,"55":0.09947137793357663,"56":0.1178761925483599,"57":0.4653450765794514,"58":-0.0378847176349256,"59":0.2708440115568017,"60":0.046810834578835316,"61":-0.1566034156214339,"62":-0.16521964169529368,"63":0.006481554678714245,"64":-0.028686745270700094,"65":-0.20696633901677944,"66":-0.13027213805635074,"67":0.19666592736544478,"68":-0.11413522726382817,"69":-0.2081317924590982,"70":-0.040598141559408316,"71":-0.07903223985800177,"72":-0.03436974154333343,"73":-0.049580130365751325,"74":0.004120744358490568,"75":-0.17596002816130477,"76":0.07416152844690699,"77":-0.05547526470267769,"78":-0.03622209705157051,"79":-0.11827313909463953,"80":-0.11785479887586021,"81":0.02015256304976905,"82":-0.007936318563401774,"83":0.0010774618497660965,"84":0.0394570503028985,"85":-0.02078394962138605,"86":0.04918702228765795,"87":0.07745878701577719,"88":-0.04934215754408549,"89":0.033982256368108484,"90":-0.02910093627091329,"91":-0.12673026638725285,"92":0.043275593934366925,"93":0.09717657114263585,"94":0.21242581751255274,"95":0.12915912511123304,"96":0.04314897927238139,"97":0.05693505771360597,"98":-0.08117940790300453,"99":-0.11065387071412876,"100":0.1575261169604675,"101":-0.14574487462208155,"102":-0.20537593712379354,"103":0.07289005886303582,"104":0.3011711090945728,"105":-0.14586183791698143,"106":-0.25505476806305516,"107":0.09404201447330754,"108":-0.18678735755583697,"109":0.10618305051495307,"110":-0.2602059287228405,"111":0.34673986741027996,"112":0.11792798632287156,"113":0.057966839759204455,"114":0.1717399156384453,"115":-0.074222668608382,"116":-0.07463442674673516,"117":0.24113696160881257,"118":0.01219790001020065,"119":0.17162418255346212,"120":0.6073746900254922,"121":-0.3021370294075431,"122":-0.0771671669299726,"123":0.07057168338788118,"124":0.025957522611405354,"125":-0.21268095582472812,"126":0.01260079547909027,"127":0.36362879452283464,"128":-0.4666127249916316,"129":0.7476837055647493,"130":0.11790743427334871,"131":0.5179681370064412,"132":0.039803179394910924,"133":0.2807310108712817,"134":0.047992340991619094,"135":0.1988077345356686,"136":0.21985164126668644,"137":-0.27167246345830987,"138":0.026383928777640626,"139":-0.1611106602146686,"140":0.1686017008475601,"141":-0.1222273760195205,"142":0.1431044059788204,"143":-0.1454023504844798,"144":-0.08582377530175656,"145":-0.046901766994152404,"146":0.1391070854356486,"147":0.0106284038371515,"148":-0.1488434754120693,"149":-0.052529864971282605,"150":-0.18017242348173554,"151":0.15861630921588288,"152":-0.12503679469623022,"153":0.021816647902221174,"154":0.006100082683451352,"155":-0.13297188037766644,"156":-0.09264792598669935,"157":0.07217762376415025,"158":-0.11071096286713646,"159":0.0005497135095114586,"160":0.01824056394271814,"161":0.033384923263445415,"162":-0.16420182489892174,"163":-0.006898851693123586,"164":-0.221024532979233,"165":-0.13913225320918243,"166":-0.005362848370808432,"167":-0.16910797291546828,"168":0.026389596199014865,"169":-0.020920189693742063,"170":0.12666203762215797,"171":0.11099785237327002,"172":0.10701372767765419,"173":0.01602883222884922}},{"sx":1,"sy":1,"depth":174,"w":{"0":-0.11738409827768287,"1":-0.18330196351991518,"2":-0.056521967728325864,"3":0.18965792380370006,"4":0.05901908775412672,"5":0.17154024071640903,"6":0.00940985417068207,"7":-0.01931495458462205,"8":-0.005354280802562004,"9":-0.07967845242641292,"10":0.10360402904662977,"11":-0.07645258920910764,"12":0.07846432605185923,"13":0.1540597704759843,"14":-0.042098872610748204,"15":0.12920411696255282,"16":0.07261942293368868,"17":0.10819818955043801,"18":-0.05101649577128936,"19":0.2272858343016365,"20":-0.009740238490801436,"21":0.1957565219700204,"22":0.3181036378161961,"23":-0.1623261662712875,"24":0.07926432236093772,"25":0.1124823078418136,"26":-0.04472917171733895,"27":-0.012536840762172714,"28":0.1816349151943211,"29":-0.15981400797401185,"30":0.16658746082399303,"31":0.4277296539479596,"32":0.5075810457084939,"33":-0.04240814912890103,"34":0.09875106026492009,"35":0.024332382697455187,"36":0.3701296747608819,"37":0.33604907090675634,"38":0.22270355726910665,"39":0.40714314523239675,"40":0.04450859032208687,"41":0.34709995481915035,"42":0.3660965390915045,"43":0.046126196468285974,"44":0.035689860685925334,"45":0.05513834138668305,"46":0.20146460118672177,"47":-0.03425733405769399,"48":0.021675566406548934,"49":0.8408002723251107,"50":0.060726956822307956,"51":0.13306078502587362,"52":-0.07703057605458265,"53":-0.10412620934417034,"54":0.20571444307386624,"55":-0.05579094459175173,"56":0.022337169721743388,"57":0.02513591664878571,"58":0.09119302966276584,"59":-0.0864064674622323,"60":-0.003734175643628449,"61":0.12769783374108995,"62":0.09369781175846306,"63":0.020271773680862287,"64":0.020936323927006874,"65":0.06069882256005704,"66":-0.013315936658633207,"67":0.018797054511359216,"68":-0.06573598060553487,"69":-0.1817032834015325,"70":0.027143645896623107,"71":-0.04732940371080268,"72":-0.0303811595873026,"73":0.020354901184149243,"74":-0.03365973665075848,"75":0.2205389507999448,"76":-0.02996207055126325,"77":0.05046767917649579,"78":-0.032081074290447875,"79":-0.08606090364119423,"80":0.042521510642478465,"81":0.10925907351563771,"82":0.02492536632738871,"83":-0.018598425469351733,"84":-0.05895453748959979,"85":0.06008293568607944,"86":-0.04377512879042379,"87":0.07639172429762776,"88":0.07496498162637275,"89":0.004436109255832081,"90":0.054471160331571906,"91":-0.07104120426719167,"92":0.05358257808105557,"93":-0.10037400240584478,"94":0.2606386422613641,"95":0.0649087198300086,"96":-0.05009833050815944,"97":0.055837418481830506,"98":-0.07771210208902492,"99":0.005500526922901433,"100":0.14107489015473051,"101":-0.17629283836714846,"102":0.14585870058367448,"103":-0.017787773251374428,"104":-0.0008882060122031428,"105":0.023550345381063986,"106":0.06679872884360827,"107":-0.07918982885019622,"108":0.1622141014234343,"109":0.03280978653626369,"110":0.2866593128337923,"111":0.14111636277515738,"112":0.36014671790750624,"113":0.03195019928350121,"114":0.29015101636393564,"115":0.1560332430922494,"116":-0.12805749864336763,"117":0.047669895294756605,"118":0.014932546824050251,"119":0.2737353730300245,"120":0.5799786395574743,"121":0.11664455481467374,"122":-1.9921455832198074,"123":-0.03571256475250969,"124":0.011292530580050291,"125":0.1014064108522529,"126":0.024900958760552743,"127":0.12788219723890043,"128":-0.06686173999702957,"129":0.030248169479404247,"130":-0.7204517111065408,"131":0.03138897516475564,"132":0.013409127779848594,"133":-0.0646373742611708,"134":0.013558428185302568,"135":0.18520535037519,"136":0.1904207488694263,"137":-0.040255731189169426,"138":-0.03428545704294261,"139":0.08507280606465259,"140":0.09583069166071162,"141":0.0670035260605496,"142":0.0625623643904196,"143":0.018654978569350764,"144":0.23728838420349255,"145":-0.05629383329276206,"146":-0.11856752423859247,"147":-0.24729534217005963,"148":0.03918223386864274,"149":0.05993678066640727,"150":-0.09612177484950025,"151":-0.08958062733567505,"152":0.09320511128015585,"153":0.07824747647637462,"154":0.05732298434095488,"155":0.20454852648523963,"156":0.26536150686882953,"157":-0.15087625921453435,"158":0.055319883063363266,"159":-0.032860103762660124,"160":0.05734633498841088,"161":0.03146989790164458,"162":-0.17902349182850258,"163":-0.12567287180535944,"164":-0.12956631211770245,"165":-0.21363684174066058,"166":-0.019239821264535804,"167":-0.19462188865945632,"168":0.01907550684752723,"169":-0.053393790106069094,"170":-0.14453930771325976,"171":0.08223512706905169,"172":-0.20531544897702514,"173":-0.032421342349110246}},{"sx":1,"sy":1,"depth":174,"w":{"0":0.006634590577220062,"1":0.017526396228813624,"2":-0.09228742055439182,"3":0.1086705828001275,"4":0.15872598233247326,"5":-0.07664176750556372,"6":0.13842217222092593,"7":0.20466271049389168,"8":0.058637104524609185,"9":-0.05070529419645883,"10":-0.0031022314866441946,"11":-0.027821306964645704,"12":-0.0009633046758346844,"13":-0.10143565443617988,"14":-0.05690554655368883,"15":-0.023637563650607752,"16":0.225926201062667,"17":0.05108697209143336,"18":-0.11968034141739338,"19":0.13188749242000383,"20":-0.07787309404614241,"21":0.1841442811861513,"22":-0.17062814333372597,"23":-0.09156950803961061,"24":0.0810722631487584,"25":0.0010290075421977255,"26":-0.09022405061107745,"27":0.16947584101741825,"28":0.2152764973425096,"29":0.31286490284431395,"30":0.8588848863717582,"31":-0.09086539470131723,"32":0.5529983465881149,"33":-0.026933947270413528,"34":0.14559842115316085,"35":0.10599540233558205,"36":0.12705267040775312,"37":-0.178082814767473,"38":0.6359616093379774,"39":-0.3322290598589114,"40":-0.05345871967959388,"41":-0.710295561866266,"42":-0.19425886812295853,"43":0.021906193620518974,"44":0.037281963555129714,"45":-0.06302632462010241,"46":0.1928191771793033,"47":-0.28202462906399695,"48":-0.3766572234434207,"49":-0.15494370658682644,"50":0.20475420450484869,"51":-0.2763980443964324,"52":0.1086529860462176,"53":0.08442591652567968,"54":0.04762402274598169,"55":0.0190538667212596,"56":0.09368944254663761,"57":-0.203672048790972,"58":-0.11199674521776003,"59":0.1374001438161166,"60":0.11572443222533478,"61":-0.18711056947918733,"62":-0.07192352146902103,"63":0.04708766865372678,"64":0.13254574921460222,"65":0.1669282166176927,"66":-0.07084206970298278,"67":0.27616049717097824,"68":-0.05577635831331417,"69":-0.0764527099778881,"70":-0.048022054656848404,"71":-0.13285871979200792,"72":0.06067332859976268,"73":0.02628344522484183,"74":-0.0827498389686222,"75":-0.007218194281825837,"76":-0.05613040834991547,"77":0.09250077042929064,"78":-0.02283700456427483,"79":0.12986099394231151,"80":-0.06313660548158911,"81":0.12561521234608516,"82":-0.08601562533633193,"83":0.09200300431223973,"84":-0.01174198009514547,"85":0.17775255605942497,"86":-0.07020756210186795,"87":-0.06748139160990863,"88":0.05966030499898689,"89":-0.09674386339616368,"90":0.06317416090227673,"91":-0.029309943463077325,"92":0.0662470365184427,"93":-0.027980758608933533,"94":-0.10116467537290284,"95":-0.11855077765766837,"96":-0.1212685208388019,"97":0.05081400967360483,"98":-0.05579128483337117,"99":0.010276553363086756,"100":0.02581252321706506,"101":-0.14631539783481332,"102":0.23767174770794,"103":-0.18984199825230802,"104":0.6743588414397361,"105":0.19493102204179302,"106":0.21604773112610465,"107":0.0881831692488164,"108":-0.12705641149259153,"109":0.027189613333211272,"110":0.22326074450865308,"111":0.27325735290722125,"112":-0.06982953855305343,"113":0.2860579164855819,"114":-0.19186880602962378,"115":-0.24201400960409264,"116":0.0434601658300761,"117":0.09536016971350608,"118":0.5447681432973034,"119":-0.015062580651249206,"120":-0.13863507499405175,"121":-0.4122235371535796,"122":-0.3162468305201088,"123":0.12674655357529316,"124":0.16151469583817918,"125":-0.08034856289899317,"126":-0.06946628567774393,"127":-0.13859309606246759,"128":-0.1302770489456031,"129":-0.26578104051929363,"130":0.22445999857397622,"131":0.062309194424210894,"132":-0.49905887653366526,"133":0.08593973671833692,"134":-0.3362010166448176,"135":0.06672008617960876,"136":0.04052871474589997,"137":-0.37978736889372516,"138":-0.1132252528014399,"139":-0.13503750191348102,"140":0.4443944354852336,"141":-0.2060204167451212,"142":-0.039059036813153696,"143":0.10078209128591477,"144":-0.032093957178690506,"145":-0.15063668714859674,"146":0.21123579003361867,"147":0.10642406016312057,"148":-0.3297776736614896,"149":-0.15055597461600742,"150":-0.057020832392946565,"151":0.22723872818824986,"152":-0.24646563021999618,"153":-0.0913603798256044,"154":-0.16377824657160484,"155":0.05970998673713869,"156":0.25768323258833953,"157":0.10297213656614122,"158":-0.010921337282312713,"159":0.07990666558217,"160":0.121667962499208,"161":-0.10261495438851873,"162":-0.2135141547329333,"163":0.01247640636435591,"164":-0.21210751847265746,"165":-0.06333024789552931,"166":-0.13878690848667954,"167":-0.2233527107384191,"168":-0.18494552997103064,"169":-0.2382164156362877,"170":-0.10297833013066965,"171":-0.16051590930403492,"172":-0.14280557358504015,"173":-0.009640737343751869}},{"sx":1,"sy":1,"depth":174,"w":{"0":-0.010362410183677336,"1":0.16429745410936533,"2":0.15018767649855874,"3":0.10421826014545113,"4":0.18451711446366229,"5":-0.10997964447904061,"6":0.13659906120082324,"7":0.26462771040822464,"8":0.08069347045183602,"9":-0.08634332046603808,"10":-0.1629736382225379,"11":-0.09247293470318821,"12":0.19368594256530727,"13":0.027865318470149336,"14":-0.2592407359877605,"15":-0.035303526795939844,"16":-0.23456875607447703,"17":-0.08375984955758499,"18":0.08287430759135761,"19":0.15865485224704598,"20":0.11567958801936072,"21":0.23357973145961747,"22":0.19578163815429936,"23":0.06533470854827092,"24":-0.08767665081173916,"25":-0.11554251657741203,"26":-0.04307185062574766,"27":0.2268713848514039,"28":-0.001535094574777209,"29":0.07651802927652152,"30":0.4330780264243757,"31":0.525663114094094,"32":0.5762108436035691,"33":0.18054833335303222,"34":0.049997234989226,"35":-0.18976962343299106,"36":0.04919361294598236,"37":-0.0357717627852356,"38":0.09297728371075822,"39":-0.3451092165258184,"40":0.18427054172179058,"41":0.19119876891555712,"42":0.3316227197980281,"43":-0.26612438235511693,"44":-0.2942983963261869,"45":-0.15744669669302144,"46":-0.0893527702088984,"47":0.42909847383966704,"48":0.428440995164852,"49":0.3261030179994671,"50":0.3909512805631545,"51":0.24467891678618423,"52":0.06511824405632269,"53":0.16266174160069985,"54":-0.11899249040633142,"55":-0.06827054269550134,"56":-0.10619887666720389,"57":0.20644662542657338,"58":0.9515099620477983,"59":0.18643155049420287,"60":-0.01768247472855743,"61":-0.014461616639968273,"62":0.27334694188376535,"63":-0.14550918388184578,"64":-0.026815872493435953,"65":0.04441624284176629,"66":-0.3227138108869207,"67":0.0915259067650506,"68":0.16718846013478295,"69":-0.1330822445018181,"70":-0.0317632343202236,"71":-0.14997524938844706,"72":-0.04882256572120209,"73":-0.09859014157988479,"74":0.1668100164104579,"75":0.07502748600479356,"76":0.055637315246722704,"77":0.0231744456377386,"78":0.14286298684998489,"79":-0.10098659391569735,"80":-0.0702989570292748,"81":-0.07766034458297959,"82":-0.024416365213404165,"83":-0.10040132221235024,"84":0.10403066543447397,"85":0.04842401521007917,"86":0.1282905500257997,"87":0.16870588633445477,"88":-0.17398714153763828,"89":-0.07787528126378669,"90":0.09961101073139593,"91":0.11544762930845157,"92":0.02108376847251912,"93":0.14708139844276466,"94":-0.1978414117866028,"95":-0.14964256130701686,"96":-0.054465366533608145,"97":-0.15719586591385484,"98":-0.06060695956767919,"99":-0.07348575966997324,"100":-0.1927102736087084,"101":-0.3358262044455017,"102":0.4205781489133274,"103":-0.0059416605033184265,"104":0.21946078278845896,"105":-0.0947012202371284,"106":0.06941355120335078,"107":-0.0922576085352951,"108":-0.07262974093761636,"109":0.2107864282527549,"110":0.03353015969703373,"111":0.407518131173957,"112":0.11163533199757922,"113":0.09885063928909264,"114":0.22907994033124846,"115":0.22195125097183635,"116":-0.12076849071737174,"117":0.08008158413632017,"118":-0.30852989165846023,"119":0.11979157610905869,"120":-0.028802299661977518,"121":-0.04607949457756708,"122":-0.3920918970817487,"123":0.016003640200665557,"124":0.15906774377257896,"125":-0.031508936934046744,"126":0.2431069288567118,"127":0.0959339490749732,"128":-0.19432890204580536,"129":0.04959434207017918,"130":-0.21193638190496808,"131":-0.22171779344190815,"132":0.12202719648713393,"133":0.03137469769198275,"134":-0.09077635323490037,"135":-0.018365367891918078,"136":-0.1504347065002128,"137":-0.18290712386296468,"138":0.9374027002046629,"139":0.2658372612900461,"140":-0.0010642365251064788,"141":0.13409064103292576,"142":0.06507174109023635,"143":-0.23776760343891734,"144":-0.06730386609590337,"145":-0.014903733280060503,"146":-0.17375563381730055,"147":0.36359021728600355,"148":0.5270330757768455,"149":0.093919446246709,"150":-0.07902921692351568,"151":-0.028156518403106,"152":-0.10071447226896159,"153":-0.080450296562141,"154":-0.15110269697553497,"155":-0.024109256404856862,"156":-0.11733016287133699,"157":0.2207488146252551,"158":0.08443146039041151,"159":-0.06352963296761448,"160":-0.009294924700097048,"161":-0.1436287712139049,"162":-0.1819971984070753,"163":-0.2896960636955826,"164":-0.04507104942865096,"165":-0.1238433218011164,"166":-0.1875314923894898,"167":-0.2085076994838303,"168":-0.2324516278144681,"169":-0.16344647047189906,"170":-0.14090336972203327,"171":-0.20624170027210256,"172":-0.1591498910009998,"173":0.078256511876817}},{"sx":1,"sy":1,"depth":174,"w":{"0":-0.10466463396319334,"1":0.06714122198893621,"2":-0.05237774943194708,"3":-0.02010379538498886,"4":-0.02330638395924795,"5":-0.0986708252894986,"6":-0.006435246647128949,"7":0.06091978860995504,"8":-0.0679057382213085,"9":0.08211970696055546,"10":0.1349925811802983,"11":0.0010186324937848958,"12":0.14793085632227065,"13":0.19381581460981473,"14":0.10654831982486629,"15":-0.005003905566969497,"16":0.09165797204090348,"17":0.0776461149685468,"18":0.00891993856431305,"19":0.11368989927450686,"20":0.16329350883615187,"21":-0.13543156008716362,"22":0.3713226531275318,"23":0.10056089125641307,"24":0.06724787904591215,"25":0.18280660031337143,"26":-0.055645787386784204,"27":-0.014880590371967335,"28":0.16289064050583674,"29":-0.1709620524946531,"30":0.28182789462408203,"31":0.6570655982085155,"32":0.30652973339233924,"33":0.0981036984304507,"34":0.008085205905946208,"35":-0.15737509844215083,"36":-0.029498481078522123,"37":0.025808099425267777,"38":-0.19112531959958334,"39":0.8567911199561252,"40":-0.10802701573433685,"41":1.2891742904802748,"42":0.09888922296424422,"43":0.12962182271058859,"44":0.09118677535617341,"45":0.058488306447674276,"46":0.2810453205310602,"47":-0.4434112519903307,"48":-0.5213388410228006,"49":1.1894476841754118,"50":-0.126228352455919,"51":0.11421240095997702,"52":0.14231622366311525,"53":-0.04046270221005301,"54":-0.06367756454716057,"55":0.27664153220896864,"56":-0.002071387240093751,"57":-0.4966090827285579,"58":0.1887342676362844,"59":0.10677503023199836,"60":0.02746613357976748,"61":0.20586671407204485,"62":0.016238637497080197,"63":-0.021250946778229342,"64":0.0471955184099043,"65":0.015169903029594858,"66":-0.3902112071662824,"67":0.30737103472666794,"68":0.14834108347225372,"69":0.1190427609426245,"70":0.02935295379800605,"71":-0.07907963781635542,"72":-0.05485846337337563,"73":-0.040954869303149295,"74":-0.16767193435165123,"75":-0.20900248306088287,"76":0.036197356819534336,"77":-0.1124694340374693,"78":0.04365230545228094,"79":0.03941593315860637,"80":-0.13094078865175449,"81":0.036319733627806515,"82":-0.06376168569830926,"83":0.002871326427912208,"84":-0.06034431253332947,"85":-0.005627215236336177,"86":0.13026386442641996,"87":-0.06438568195072493,"88":0.0350663946851065,"89":0.11294261525856578,"90":-0.002950850961901597,"91":0.04244920670068262,"92":-0.07968793963604218,"93":0.06266776258064678,"94":0.5469314948475014,"95":-0.12333833743871195,"96":-0.00990936104528147,"97":-0.007160028169096978,"98":-0.037394327790754085,"99":0.004257501883123982,"100":-0.19813704595219014,"101":-0.12030960573021332,"102":0.08629108907765369,"103":0.07355348742661268,"104":0.2741588814987215,"105":0.04180201425075572,"106":0.010614131244775477,"107":-0.06062688984212493,"108":-0.17343923114083537,"109":-0.15087936577171354,"110":0.09132186509431157,"111":0.26683561600052047,"112":0.13593483985681518,"113":0.08716375170830903,"114":0.19872270029341302,"115":-0.08100945755572891,"116":0.040163400254450025,"117":-0.16823396623967543,"118":-0.2108080663913491,"119":0.1576168960814473,"120":0.27976370693371716,"121":-0.04048627621438157,"122":0.2962387470717921,"123":-0.046174744604859645,"124":-0.12352239884283268,"125":0.09188830563694987,"126":-0.30769925841578494,"127":-0.021043028238971574,"128":0.5738217835210785,"129":0.4447672421572345,"130":0.05084992718914978,"131":0.031388865935449796,"132":-0.012595774900765652,"133":0.0694281182653986,"134":-0.09624101809326426,"135":-0.23614629809810894,"136":-0.3554081585769674,"137":-0.20976131045165314,"138":-0.028173380013855012,"139":0.2700420135753333,"140":-0.08627022441200774,"141":-0.21678400333317774,"142":0.023688619099452208,"143":-0.03752736108604316,"144":0.036408421393858,"145":-0.06297292711459501,"146":0.1097837882295284,"147":-0.11848347359925666,"148":0.07711357188366924,"149":0.0938653088245219,"150":0.07801673930409792,"151":-0.12075435368277967,"152":0.04772190718684818,"153":0.007278955547532043,"154":0.00439813128721011,"155":0.10251265325491864,"156":0.025663764360374146,"157":0.18907367076125597,"158":-0.014688340311150587,"159":-0.01478953693785173,"160":-0.09791248040174412,"161":-0.04257603456321931,"162":-0.10465587065384042,"163":-0.1973808113986062,"164":0.10613705842438914,"165":-0.006304315317139841,"166":-0.1780481733193078,"167":-0.15306095720184726,"168":0.06385673058447672,"169":-0.2386030874847355,"170":-0.3092269510973957,"171":0.018287192658774255,"172":0.05424401916573519,"173":0.02121010290841467}},{"sx":1,"sy":1,"depth":174,"w":{"0":-0.08485110865029309,"1":0.08110925000953574,"2":-0.03477541063803123,"3":0.03159565466309722,"4":0.027845796065459342,"5":0.10249527699006149,"6":0.02628063940291536,"7":0.010390960325507839,"8":0.02261925119153155,"9":0.03869067477064427,"10":-0.06357504517524741,"11":0.03676858886399325,"12":-0.14669435342416012,"13":0.3828591423348332,"14":0.006708138309584699,"15":-0.05160193652517256,"16":-0.1326368004400061,"17":-0.045256353102608185,"18":-0.045372187132844584,"19":0.08794434687907396,"20":0.018109383557573085,"21":-0.013309544891457083,"22":0.0012336463830242323,"23":0.044669955218424706,"24":-0.023868739025048172,"25":0.18503050936897955,"26":-0.06481839601715543,"27":0.18535833072316765,"28":-0.10409535330328985,"29":-0.11272646026716121,"30":-0.28826920580981624,"31":0.3507762163057027,"32":-0.32738056858044334,"33":-0.009799884850911081,"34":-0.10515319803847688,"35":-0.12851489763947788,"36":0.16235451810493073,"37":0.22038605906280387,"38":-0.08183551138697134,"39":0.7866425065778769,"40":-0.15063416130011223,"41":0.20011019095779492,"42":0.02747475165926359,"43":0.2779746891285246,"44":0.5931377365379171,"45":0.06008391840376344,"46":-0.2687104395697871,"47":0.22059179941251564,"48":-0.10208203494916887,"49":0.3516412232679459,"50":-0.12658494805890863,"51":0.2770022943243872,"52":-0.17102784710788282,"53":0.04178441531291809,"54":-0.05277989306374389,"55":-0.049460795044393956,"56":-0.036804529878121106,"57":0.0634768139751428,"58":0.4834836831933767,"59":0.2892004854257926,"60":-0.1264264195782203,"61":-0.11734500593614436,"62":-0.05985891252489598,"63":0.1896495836713663,"64":-0.24106556907342738,"65":0.061134095032622245,"66":0.15366052530419874,"67":0.3138850277734919,"68":0.1332563182149195,"69":0.1992770108765834,"70":-0.12702048113201972,"71":-0.045136332490057114,"72":-0.010956156200668574,"73":0.029744125917129775,"74":0.03318746592547915,"75":0.17510966099971023,"76":0.1870452357763187,"77":0.2867160737111405,"78":0.08468768296767011,"79":-0.033448708685406996,"80":-0.03136126014607878,"81":-0.21709513950739323,"82":-0.12742247701011783,"83":-0.05445755388204783,"84":-0.12455757119316628,"85":0.2767483983213097,"86":-0.14208999964731236,"87":-0.11976671056066533,"88":-0.17265149734413693,"89":-0.13747230894537676,"90":-0.08331634047588711,"91":-0.04581813094709469,"92":-0.2657890075226064,"93":-0.05130382992617931,"94":-0.034588211824547875,"95":-0.012145885792066628,"96":-0.1421328512942449,"97":-0.05907437689065965,"98":-0.054988129235457484,"99":-0.145765659837801,"100":-0.2715639024787382,"101":-0.41010367254368163,"102":-0.2929629423990603,"103":0.08652046632072341,"104":-0.24306796861688107,"105":-0.19114259407623177,"106":-0.25982668825883654,"107":-0.1340345624141007,"108":-0.04611248572082155,"109":-0.05125616429247212,"110":-0.7056179380518045,"111":-0.43244366110506877,"112":-0.7021508492970421,"113":-0.6538320974263462,"114":-0.5516757560440764,"115":-0.12343778478827072,"116":-0.3683124758231545,"117":0.08704520151802003,"118":-0.3826261558974443,"119":-0.19002076829787623,"120":-0.5554677296391894,"121":0.47761011338612286,"122":0.12627850852448871,"123":-0.45809552721432584,"124":-0.16022954727974245,"125":-0.17297269291861606,"126":-0.12270088779663886,"127":-0.08397761099695214,"128":-0.3278036831080331,"129":-0.1560586500282348,"130":-0.13425368573437,"131":-0.10286455495107892,"132":-0.33341022118411945,"133":-0.30195685791144966,"134":-0.09510388499321491,"135":0.014619068962295994,"136":-0.0067915897406843504,"137":-0.23631661360017384,"138":-0.10082535699068855,"139":0.07283774819613875,"140":-0.16837321680845146,"141":-0.06024534304745824,"142":-0.192549512174551,"143":-0.008339242063864206,"144":-0.1895612559925044,"145":-0.1117992954771326,"146":-0.30291853508546934,"147":-0.07532236183961374,"148":-0.08298197311679884,"149":0.04851635257913427,"150":-0.08424420927506497,"151":-0.1017181662437271,"152":0.04810168786443787,"153":-0.21126280415550047,"154":-0.12099769320920209,"155":-0.21841270892499906,"156":-0.290162215600327,"157":0.12184705893993088,"158":-0.20038357771404364,"159":-0.1464740819911186,"160":-0.13603757917497736,"161":-0.1134802254963576,"162":0.003582422838536072,"163":0.179907291320136,"164":-0.12012251441969297,"165":0.05246787156816486,"166":-0.09214373806864425,"167":-0.05503300003844975,"168":0.10156561199655996,"169":-0.08095395790053285,"170":-0.0791517799744408,"171":-0.022881669036814704,"172":-0.09755018824304838,"173":-0.08648243199384348}},{"sx":1,"sy":1,"depth":174,"w":{"0":0.13759991134889035,"1":0.02112542324769894,"2":0.019252308623418916,"3":0.16517591577358506,"4":-0.0896583995156403,"5":-0.20827317876811005,"6":0.071398410463128,"7":0.05668920422771471,"8":-0.11385672329990454,"9":0.15297532479805603,"10":-0.08551580102792061,"11":0.10599724991386007,"12":0.21208782363216244,"13":0.23372355825042782,"14":0.194210018839795,"15":-0.014966725896599583,"16":0.25218091481211546,"17":0.07684972508346995,"18":0.04585043075730455,"19":0.16104742492578797,"20":0.022322253808200736,"21":-0.00009101452777938556,"22":0.022339740473207623,"23":0.4077114417537225,"24":0.13856820337636297,"25":0.15229116067979945,"26":-0.09047275702445932,"27":-0.010329375352659365,"28":0.10659537982920007,"29":-0.2881555220523452,"30":0.088642286469965,"31":-0.040319985266671715,"32":-0.21085234269083367,"33":-0.13968196359261392,"34":-0.35098633339659835,"35":0.0363790004050183,"36":0.14307892443087353,"37":0.24089580769690278,"38":0.21262183287298544,"39":-0.047291646651307064,"40":-0.24538802986639247,"41":0.45808325760867985,"42":0.09373081679298823,"43":-0.3819940544273358,"44":-0.03853319920724187,"45":0.02972524881365881,"46":-0.03411831442322593,"47":0.3970999588683098,"48":1.640961828625096,"49":0.11291866803676974,"50":0.37688880470972375,"51":0.06615718864774774,"52":0.0010450929965257433,"53":-0.016651214544289698,"54":0.11343681108623964,"55":0.21653730435804885,"56":0.2802126163388585,"57":0.5498582043294834,"58":-0.2543399137041129,"59":0.4256243650796479,"60":0.15846976814856353,"61":0.2100617240035106,"62":0.052395050990531586,"63":0.0034036937491318787,"64":0.042867148827496454,"65":0.230971225692126,"66":0.2804006659257898,"67":-0.06836413463027068,"68":0.14905611938056143,"69":-0.01833193251312744,"70":-0.02500413473260103,"71":0.1885847705909058,"72":-0.012247268346997608,"73":0.04546890806851042,"74":-0.08894292275616379,"75":0.3067724185344908,"76":-0.08539253891474106,"77":-0.1630312450260055,"78":-0.2060917200436875,"79":0.12143622107306778,"80":-0.061513450189545314,"81":0.07709427928047763,"82":0.050076909983756204,"83":-0.10670945538200241,"84":-0.18626739982251656,"85":0.047168341556893166,"86":-0.2865188697814057,"87":0.037647833793261434,"88":0.03134674396115556,"89":-0.03993725824721816,"90":0.07793244680773145,"91":-0.13972745858586585,"92":-0.09036180203681465,"93":-0.3305311662114614,"94":-0.17200207235933318,"95":-0.2096255101097309,"96":-0.10640185113055786,"97":0.006540142780472671,"98":-0.08548685729641264,"99":-0.07754557282562924,"100":-0.07052546561889275,"101":-0.09464760237041948,"102":0.12348772964186862,"103":-0.01460870559645827,"104":-0.1069714886445267,"105":0.1097217317788134,"106":-0.08512618774676436,"107":0.0035173188174755683,"108":-0.13109571665599873,"109":-0.06806261958792,"110":0.12417869927461742,"111":-0.44401869969398866,"112":-0.31219237009890205,"113":-0.4823211939757571,"114":0.12473117227177942,"115":0.19462097896499625,"116":0.17883516482318979,"117":0.1419044306756708,"118":-0.41896274464787076,"119":0.24016184284113865,"120":-0.2075367171934169,"121":0.37326691861615713,"122":-0.12498079484479147,"123":0.37296484520108725,"124":-0.28639780168967116,"125":0.07361492341314398,"126":0.23519535968831679,"127":0.1301304299873526,"128":-0.08198949176948463,"129":0.23714016772899724,"130":-0.10734168562831997,"131":-0.12634312626099276,"132":-0.04786763594913161,"133":0.19530504748392677,"134":0.09159498546576762,"135":-0.0159116390764295,"136":0.217450171206902,"137":0.012630468299424684,"138":0.10145577411404634,"139":-0.16177383926242586,"140":0.2613005396637621,"141":-0.0037393158183928804,"142":0.1223689780942752,"143":0.02446969602720163,"144":-0.11841858558226671,"145":-0.10276054433535406,"146":-0.09683701897935976,"147":-0.1111096280200845,"148":0.09466447426872344,"149":-0.10069827031654487,"150":0.129990288926618,"151":-0.050717522325997653,"152":0.17244721728290277,"153":0.07371231981114172,"154":0.10493023193466497,"155":-0.06984852592650452,"156":0.058740215683065394,"157":0.15973831896401358,"158":0.04182485908767435,"159":-0.03208473799474387,"160":0.14299578505887978,"161":0.05788344101564561,"162":-0.21652218105206894,"163":-0.22871148528416452,"164":-0.11112649977862862,"165":0.033495336058202534,"166":0.049673978075096166,"167":-0.08402132243768125,"168":-0.054085929295092094,"169":-0.21151738124283895,"170":-0.1702162030029693,"171":0.08079732946746639,"172":-0.047893336266467,"173":-0.12116645379830865}},{"sx":1,"sy":1,"depth":174,"w":{"0":0.114016324818011,"1":-0.14378617186678558,"2":-0.0033657923684842594,"3":-0.04825385811627914,"4":-0.06681044638379924,"5":-0.18627474871403765,"6":0.07061765425106813,"7":-0.04845891325318262,"8":0.05239545809548179,"9":0.04522549908779574,"10":-0.06996305477379017,"11":-0.07886691175281167,"12":-0.0548800478562012,"13":-0.30869250477836974,"14":-0.2298723120952732,"15":-0.41089897696297795,"16":-0.05830748784634525,"17":-0.10370064539716246,"18":-0.004170071529262455,"19":-0.17539169703773175,"20":0.02343482822840486,"21":0.06941977356211075,"22":-0.09416924069569574,"23":-0.7153390265430914,"24":-0.08091549512477839,"25":-0.22940100699853963,"26":-0.14034956397100826,"27":-0.234750881749449,"28":-0.18511409003708726,"29":-0.2072865460508988,"30":-0.8407658571724044,"31":-0.5096866940225585,"32":-0.6225124366212732,"33":-0.6981055436828606,"34":-0.5461367993740798,"35":-0.1600003573892737,"36":-0.31059622961451594,"37":0.019533932855303745,"38":0.06318678708719044,"39":-0.7834962078095797,"40":-0.09897716412283741,"41":-0.32978128716534877,"42":-0.03382924909370976,"43":-0.1309307069176731,"44":-0.4753890599985861,"45":-0.2643446012666689,"46":-0.07119163093998755,"47":-0.39169632765261386,"48":-0.6111526775663579,"49":-0.40731130041114566,"50":0.03511306584998673,"51":-0.5324682153229314,"52":-0.39340064500858773,"53":-0.1628183197216839,"54":0.13454096408195826,"55":-0.15890790134276334,"56":0.11800898646066754,"57":-0.23428017299479406,"58":0.01973797070355019,"59":-0.20636750396666667,"60":-0.12027945862369867,"61":-0.3520158606484508,"62":-0.16093056843388742,"63":-0.20964233747063635,"64":-0.06542063147933794,"65":-0.23530852191682,"66":-0.03746091281727328,"67":-0.1836988298319847,"68":-0.00877756607327858,"69":-0.32648790092774377,"70":-0.16924621884307783,"71":-0.06991465615191388,"72":-0.03806626340379892,"73":-0.12565629210654794,"74":0.0493041054004268,"75":0.03005536586071856,"76":-0.03170031617841173,"77":0.025301723658150924,"78":-0.09161698814130184,"79":-0.0677358100440941,"80":-0.004847497099197218,"81":-0.08846418607390832,"82":0.09451409853437753,"83":0.026309812663869832,"84":-0.024361321311986785,"85":0.027003056296291572,"86":-0.1540518505966211,"87":-0.012570720277478187,"88":-0.0931387476167333,"89":0.01350303399545659,"90":-0.05344380318941774,"91":-0.06052245549489144,"92":-0.02293920598769808,"93":0.060890774581858216,"94":-0.0898003382886021,"95":0.06936180598753719,"96":-0.046248636231079006,"97":0.060323793306191226,"98":-0.050158944017076615,"99":-0.030373017199585548,"100":-0.048416926677962276,"101":-0.008996647195950275,"102":0.2710675889496177,"103":0.1973558644567216,"104":0.29250999078034234,"105":-0.16111333296892189,"106":-0.05482828254794445,"107":-0.13793979433971326,"108":0.034530335091659585,"109":-0.13542640458294286,"110":0.24472156255916167,"111":0.14047944628594985,"112":-0.10413402237565948,"113":0.08459014157268593,"114":-0.11225555079893712,"115":0.3453784198960386,"116":-0.09843597207748182,"117":0.3984442654812435,"118":0.25785118705186055,"119":-0.38533815367012947,"120":-0.26831063602057775,"121":0.050537491538361935,"122":0.1962470246786547,"123":0.11564367215747129,"124":0.023202343410330697,"125":-0.4105726466645537,"126":0.05074964975989933,"127":-0.1740837926933926,"128":0.12089725242903608,"129":0.20794267862896593,"130":0.2700609119859077,"131":0.12322459772455471,"132":-0.19167991590425967,"133":0.1802200148913372,"134":0.10643089309809708,"135":0.06814423777454105,"136":-0.12081515546166118,"137":-0.2540937473420325,"138":0.12970281503360007,"139":-0.04242353785517119,"140":0.11226724940350923,"141":-0.08244454640807469,"142":-0.09319392392544475,"143":-0.09254188430112505,"144":0.05031134015899329,"145":0.034887932895319475,"146":-0.042242443401114556,"147":0.054619085005944715,"148":0.08089884676623796,"149":-0.13215225577301845,"150":-0.039057797890651405,"151":0.09610089220766779,"152":-0.10552571248770572,"153":-0.17528909369518705,"154":-0.05459356285474682,"155":-0.047301638362042375,"156":0.1176363184425465,"157":-0.12958581824879656,"158":-0.21693346098464508,"159":-0.08331865844793661,"160":0.07255798936629405,"161":-0.09947290579457573,"162":0.0684051057534384,"163":0.0976398005570445,"164":0.07593178713834178,"165":-0.06772043471742019,"166":0.06778280406601518,"167":0.12912333888870103,"168":0.18011190355561493,"169":0.020987529224436845,"170":-0.0652637747708624,"171":0.21025531020304694,"172":0.13939650413017948,"173":-0.044503233709745287}},{"sx":1,"sy":1,"depth":174,"w":{"0":-0.0034386345403307414,"1":-0.17422042845792712,"2":-0.05750366050227308,"3":-0.10994167193641476,"4":-0.025267621020532167,"5":-0.001183351366290363,"6":0.13212971842025287,"7":-0.0010653417813569093,"8":-0.004133461264456652,"9":-0.0887643655685978,"10":-0.1684206118207179,"11":0.20608908917935076,"12":-0.0923901047602327,"13":-0.10134898173906723,"14":0.026616039448415584,"15":0.05728110597865105,"16":-0.016636951688657774,"17":0.004305187835522297,"18":0.07409624400919719,"19":0.03722276770994703,"20":0.07804552399898378,"21":-0.02974556186641373,"22":-0.46091361044782275,"23":0.29318547595866057,"24":0.21963415602104147,"25":0.12662095820739483,"26":-0.0033016039107874678,"27":0.026146994582009527,"28":0.10124535160211007,"29":0.16265892837701348,"30":0.18224840858377594,"31":0.3654157925398462,"32":-0.7749497086272317,"33":0.3335489347414178,"34":0.05914782908391,"35":-0.10341692624191744,"36":-0.044465429266344454,"37":-0.05416469280011247,"38":-0.1803542329712993,"39":0.4016601176792372,"40":1.5923162495734018,"41":-0.034424134114827955,"42":-0.8332258996745567,"43":-0.013029112543906249,"44":-0.3714028945198209,"45":-0.10164045993033569,"46":-0.20346855705315645,"47":0.23688686540375448,"48":0.15388234631949743,"49":0.11337876822635751,"50":-0.7958365489517198,"51":-0.2358813550335544,"52":0.125005281066842,"53":0.023029655151681525,"54":-0.13097181216907935,"55":0.03292676914179202,"56":0.0006334462351911262,"57":-0.22944885808093995,"58":-0.5088505336790798,"59":-0.30072373255477414,"60":-0.08345663384936251,"61":0.05237794507847522,"62":0.00828664204726094,"63":0.0042301842566959584,"64":0.0022685430439245563,"65":-0.1475275707995053,"66":-0.07443737368758385,"67":-0.008412931418270403,"68":-0.4205461883345458,"69":-0.047303526815614914,"70":-0.0276588989921885,"71":-0.02877875669009893,"72":-0.047457561294122264,"73":0.05115947795482272,"74":0.08684890329761576,"75":-0.0625868472785095,"76":-0.15428604408143728,"77":-0.08661902727131993,"78":-0.056020358134955546,"79":0.12440651040932263,"80":0.10541798166158947,"81":0.07173730572079803,"82":-0.005639243426209595,"83":0.07748979259993498,"84":-0.0009211225355979362,"85":-0.06685804766794545,"86":-0.05749775193976406,"87":-0.00818902571449922,"88":-0.1491255767522679,"89":-0.1533001892162108,"90":-0.057905607921553734,"91":0.0674942228136007,"92":0.05137561925950416,"93":-0.057458748721960475,"94":-0.39665023692862217,"95":0.10378464591537039,"96":-0.09723518049596358,"97":0.0841479751800814,"98":-0.052035259204052005,"99":-0.1452841588024307,"100":0.05786003715513885,"101":0.05801248511470704,"102":0.018960647232328,"103":0.1720674892177108,"104":0.09132210452549835,"105":-0.136663057952946,"106":0.03866622843270443,"107":0.09144935136218388,"108":-0.1535686479513215,"109":-0.07586049067384956,"110":0.12401412365135686,"111":-0.1651704513311731,"112":-0.0079615386249747,"113":0.03669852331338733,"114":0.06782519491557966,"115":-0.0007863808498370488,"116":0.010897392211241377,"117":-0.12177477421942762,"118":-0.08628488873977568,"119":-0.19611693069460406,"120":0.28614558144484026,"121":0.6897207921321272,"122":-0.2283981056565568,"123":-0.22405451685402544,"124":0.006616001022087795,"125":-0.19626208394867903,"126":0.0081379121812712,"127":-0.2628077767740249,"128":-0.14301830468466453,"129":0.08001801545508824,"130":-0.05900884308898257,"131":0.20445552865012193,"132":0.4319190679795542,"133":-0.1131672636106503,"134":-0.20607924206388234,"135":-0.08425542746292722,"136":0.1511989501934076,"137":-0.09413337076108795,"138":0.10949443214474901,"139":-0.3875307603314656,"140":-0.26905578287910453,"141":-0.5879518605546509,"142":-0.2666754431950751,"143":-0.19589689013170597,"144":0.05402520336675321,"145":-0.0932301249276892,"146":-0.12536332558575936,"147":0.09533136728177252,"148":-0.4317769921281937,"149":0.01247174916325354,"150":0.036599851249823755,"151":-0.13104438554282255,"152":-0.007622425770585198,"153":0.016904916703568133,"154":-0.08857321320995802,"155":-0.006261926024752045,"156":-0.117781523482927,"157":-0.3421142005563291,"158":-0.13529747121581434,"159":0.07694454870462324,"160":0.0529210839541715,"161":0.06956422124210819,"162":-0.14648983422063017,"163":0.10381382351340415,"164":-0.13492643127973888,"165":-0.0409762365550956,"166":-0.0611271767648599,"167":0.21557227464186696,"168":0.1093498495452493,"169":-0.02705889749319777,"170":0.11011006007849936,"171":0.35420273698398047,"172":0.3117522163498715,"173":-0.16769231124702708}},{"sx":1,"sy":1,"depth":174,"w":{"0":0.14719770778361302,"1":0.05868824565199976,"2":0.13720211008492736,"3":0.0605494575684244,"4":0.2842877700071738,"5":0.14126496068933697,"6":0.04289290285213741,"7":0.13983392490248853,"8":0.07832415847810653,"9":0.07598466320866996,"10":0.05681755766716213,"11":0.12733561209196342,"12":0.21815143343270726,"13":0.3560470302174848,"14":0.17250632607331465,"15":0.24449720047725162,"16":0.14250291500305373,"17":0.0898265463968585,"18":-0.039825698150234616,"19":0.12470609551954995,"20":0.20969889134940412,"21":0.10454685071948217,"22":0.30849863023310325,"23":0.12192400378087585,"24":0.19176671233414383,"25":0.13873156351782628,"26":0.20461586492657208,"27":0.16130878383863612,"28":0.392844848737143,"29":0.4062542091246332,"30":-0.14771274555887587,"31":1.2369319705961044,"32":-0.13149149876145502,"33":0.21890141047463804,"34":0.179477978451647,"35":0.2516178705275729,"36":0.2805763186614056,"37":0.7575698516973904,"38":1.315743379020274,"39":0.9867320033004484,"40":-1.3344438659103022,"41":0.2935408259223838,"42":0.35772744573812537,"43":0.06181956862170933,"44":-0.01298761562385971,"45":0.15511681676728772,"46":0.2811683390579571,"47":0.12048268574888686,"48":-0.6867695355251602,"49":0.3402423077022718,"50":0.18020296588720222,"51":0.00301578041526184,"52":0.1751795292256569,"53":0.11041029572043844,"54":0.20859752439560647,"55":0.08842156663856388,"56":0.22832165766274956,"57":0.2172356123247494,"58":0.3493302988859375,"59":0.02199793485669255,"60":0.21133746007030435,"61":-0.03218858096602657,"62":0.10223594705652014,"63":0.28118102741997325,"64":0.08627043258276286,"65":0.01012874354998788,"66":0.11244859762751773,"67":-0.08499072125541521,"68":0.09141823474984971,"69":0.07685802241904195,"70":0.0967073832461513,"71":0.0698342717188687,"72":0.15839636990912656,"73":0.10078486384989384,"74":0.049682637619792296,"75":0.2443682515386868,"76":0.2730188892465837,"77":0.37186545542806065,"78":0.2627064247396681,"79":0.04939837991806022,"80":0.06413069190264084,"81":-0.0494308710554856,"82":-0.026101661327729078,"83":-0.13304528316322295,"84":-0.13469712528587172,"85":0.015046770210957345,"86":-0.23051727179127546,"87":-0.18206746004162044,"88":-0.03636744309571934,"89":-0.057514802643140975,"90":0.034076404055929356,"91":-0.051330050343595224,"92":-0.1546591326427581,"93":0.04452219749696773,"94":-0.08038935349071342,"95":-0.24549096705417103,"96":0.004191609336710399,"97":0.010239750718463482,"98":0.006537865127588562,"99":-0.07720468263850544,"100":-0.04048594638867205,"101":-0.23340744306859393,"102":0.07280014539911384,"103":-0.024432233958190486,"104":-0.413062321330835,"105":-0.10691748551177817,"106":0.08772116929642458,"107":-0.2197236941009987,"108":-0.1320523164168172,"109":-0.19141318747160013,"110":-0.111645012618892,"111":0.07667489768715949,"112":-0.37757180522236455,"113":-0.6326806786295415,"114":-0.4527873056646911,"115":-0.1840541809636446,"116":-0.10185798886802976,"117":-0.11224600505437264,"118":0.3850395657832681,"119":0.20867134982546306,"120":0.13751054566569804,"121":-0.3796692968767425,"122":-0.34056028735376975,"123":0.05620173127992356,"124":-0.024325173926449294,"125":0.08749762059636258,"126":0.003946470581499862,"127":-0.02745491188682824,"128":-0.22068732485538495,"129":0.09117067525743655,"130":-0.1714796644106514,"131":-0.16732991388577423,"132":-0.41471547443314366,"133":-0.03972196288063829,"134":-0.030895642453825506,"135":0.012178567081043395,"136":0.000024267115613823453,"137":0.1220201942298396,"138":0.08214991867328814,"139":-0.0590112476356305,"140":-0.0633614862093307,"141":-0.053920769588402175,"142":-0.15943372756596896,"143":-0.06673908269037379,"144":-0.08950565390427924,"145":-0.10964043649930486,"146":0.07460706996233099,"147":-0.06633597367457043,"148":-0.16530431649604527,"149":-0.2845930758632828,"150":-0.07985450039257228,"151":-0.019958963747964433,"152":-0.022411401340850033,"153":-0.07717060131602498,"154":-0.02944520660916581,"155":-0.15231513408369426,"156":-0.07033777879886842,"157":-0.001289672786966759,"158":-0.08272397206427683,"159":-0.11549857519527636,"160":-0.009080289968475519,"161":-0.08222154317713011,"162":0.07411172437481102,"163":-0.21366178350749432,"164":0.10584043199369846,"165":0.015743983069670543,"166":0.06871796577894129,"167":0.11130083024398539,"168":-0.16545485873628038,"169":0.08703304709829034,"170":0.028277444215277607,"171":0.12886911676779828,"172":0.08733758750162333,"173":0.006950743506876725}},{"sx":1,"sy":1,"depth":174,"w":{"0":-0.04191614095518794,"1":0.07794587008426146,"2":0.04648068453421979,"3":-0.019453058111931334,"4":-0.1374435499327445,"5":0.034503184880366806,"6":-0.008497684902743257,"7":-0.01703783259652645,"8":-0.03286355247002716,"9":0.03677474641597943,"10":0.006564299263771097,"11":0.0741838214321272,"12":0.10403422710497741,"13":-0.08978357882396056,"14":-0.028567754052360467,"15":0.011935264243053368,"16":-0.08020275261201372,"17":-0.04399502077177238,"18":0.029833895804207426,"19":0.028799555039328673,"20":-0.08633981276921274,"21":0.6016060124857058,"22":-0.47516786161585145,"23":-0.17997491826780593,"24":-0.18599238584564334,"25":-0.006247176804486622,"26":-0.1747252190363252,"27":0.04916744995212553,"28":0.42144362773606847,"29":0.5561232808118133,"30":1.1185795046091804,"31":-0.8946955100049966,"32":-0.36664328054109774,"33":-0.21347172193824668,"34":-0.07867934170982949,"35":-0.06314048847224711,"36":0.1444841667084507,"37":0.0032470972335458407,"38":0.09138770704297113,"39":0.9748346446644728,"40":-0.2175223526336667,"41":-0.22113036154092233,"42":0.5249252024160874,"43":-0.0362002023097511,"44":-0.02540312119315352,"45":0.17159923129709673,"46":-0.005927505592378369,"47":-0.004176759518484248,"48":-0.6259018617402529,"49":-0.2808762793382152,"50":-0.18902371922070738,"51":-0.38131163757786574,"52":-0.07561868203820418,"53":0.06855226344133687,"54":-0.011880153027027282,"55":-0.14469491421177152,"56":-0.01379190151764747,"57":-0.13708489472797092,"58":0.2144334724074371,"59":0.0058366331004947,"60":0.021712232351486938,"61":-0.026674047302005604,"62":0.019604159881768297,"63":0.040006632000130535,"64":-0.06603159896746086,"65":0.12418959577174599,"66":0.1549355727333529,"67":-0.1810975167906983,"68":0.3425182188387333,"69":-0.01861894785952198,"70":0.002760214704258331,"71":0.12097065325407012,"72":-0.18450921748730267,"73":-0.16804836505782472,"74":-0.18181497396788,"75":0.1558048285630764,"76":-0.011807293445187205,"77":0.11548955877256768,"78":-0.0017149796370530292,"79":-0.006429126139277154,"80":-0.08219990819797007,"81":0.06771345003884513,"82":-0.018674856996852198,"83":-0.05535080779642942,"84":-0.14196822273544635,"85":-0.2173675018530939,"86":-0.054901560301708265,"87":0.04345955647053195,"88":-0.17399685096785952,"89":-0.03608121617464193,"90":-0.0070141004547735674,"91":0.14273352705574743,"92":0.14741066738473846,"93":-0.32677400354917396,"94":-0.44675582438692063,"95":-0.24942094980657403,"96":-0.2395411056041333,"97":-0.059338103737241216,"98":-0.037073243817635056,"99":-0.01941025938106789,"100":-0.01445225863345064,"101":0.03052298677805035,"102":-0.2422448142878209,"103":-0.15332019399541352,"104":-0.040600888716146304,"105":0.07657997714888584,"106":-0.16146669483719495,"107":-0.10355169779302256,"108":-0.12578105979686446,"109":-0.20945529200448945,"110":-0.5847257080969246,"111":-0.7260906997238138,"112":-0.04471467227576311,"113":-0.19884761337219997,"114":-0.34411597654066783,"115":-0.15022455688731354,"116":-0.12273221730891366,"117":0.08479120964859124,"118":-0.2994726795936177,"119":-0.46203828852856066,"120":0.16997360047414012,"121":-0.45326516638274456,"122":0.362132536207511,"123":-0.10835330459772366,"124":-0.06078568719884946,"125":0.01627626889077744,"126":-0.12385230423318724,"127":-0.09198822534092614,"128":-0.22966134211353623,"129":-0.3869393561218491,"130":-0.07661856824929632,"131":-0.22835055911587357,"132":0.22895720082206786,"133":0.04946071653575085,"134":0.0673954536452807,"135":0.13036510859852987,"136":-0.0027286045405535914,"137":-0.08414743762819249,"138":0.35397358416338853,"139":-0.15496181353460095,"140":-0.571925844736301,"141":-0.16489074609583657,"142":0.05971299281234791,"143":0.008691951849028927,"144":-0.06649669893948884,"145":-0.004156500653291639,"146":-0.1137972421156,"147":-0.041008642616750766,"148":0.19478796619775585,"149":0.1481286169444984,"150":0.15969994850525243,"151":0.10579917952306134,"152":-0.04653008647554948,"153":0.006633444370602228,"154":0.030597758340806722,"155":-0.1460031033455992,"156":-0.15561308161520152,"157":-0.06406883471526607,"158":-0.08492068611620937,"159":0.0010135048148068432,"160":0.06604319850142083,"161":-0.11382307331801754,"162":0.07565590677648079,"163":-0.1462967886683948,"164":-0.0577088593602069,"165":0.04672650424760324,"166":-0.14321776313370974,"167":-0.11582451674969296,"168":0.06325484001980879,"169":-0.008780951631064614,"170":0.056763155034471116,"171":-0.10892126649905214,"172":-0.15318057014940112,"173":-0.13246081737197382}},{"sx":1,"sy":1,"depth":174,"w":{"0":0.07295565084802785,"1":-0.19105075903429591,"2":-0.10361130112038866,"3":-0.1364817910865821,"4":-0.1768805708294417,"5":0.03490313370986939,"6":-0.09882555256251493,"7":0.06806600236998671,"8":0.07451012541346985,"9":-0.07058227920979906,"10":-0.023315412457695684,"11":0.19631595692155793,"12":-0.22954588445235044,"13":0.10609920817422358,"14":-0.14872697539516164,"15":-0.022419115114111137,"16":0.0011529709391977995,"17":0.04102649202622547,"18":-0.08003446481758808,"19":0.05549483074661408,"20":-0.06385156179567703,"21":-0.06985729471126013,"22":0.11641903706427924,"23":-0.2536410891283219,"24":-0.005845850006055483,"25":0.0710233274223016,"26":-0.07449113401481756,"27":0.0510473197898195,"28":-0.10972847975894111,"29":0.058322344655022076,"30":0.8351959629330564,"31":0.024310509180897697,"32":-0.290827188358437,"33":-0.11839926563611149,"34":-0.18368686523907207,"35":-0.12821151496391336,"36":-0.35506350517155494,"37":0.042056038981738826,"38":0.251744780648608,"39":0.7910314323214402,"40":-0.5630089021829701,"41":0.3231528993748087,"42":0.02918849837442655,"43":-0.12948425959698667,"44":-0.16831136873555388,"45":-0.11262669251096602,"46":-0.3463829082526693,"47":-0.2721671264380273,"48":-0.051460629572743756,"49":-0.3863026467867345,"50":0.4490019578045655,"51":0.05657757768989581,"52":-0.28422635941122193,"53":-0.1830350070742929,"54":0.0640103390294323,"55":0.053261318337861165,"56":0.0410266220659284,"57":-0.024021752247441585,"58":0.06313432429295647,"59":-0.01203039970276132,"60":-0.038978984575402484,"61":0.03773232135030057,"62":-0.10131836118066526,"63":-0.07278996618311974,"64":0.10733372010149202,"65":0.11800905139927423,"66":-0.18470927111359361,"67":-0.252060138885195,"68":-0.08921163357460983,"69":0.12493202879789739,"70":0.1146488762335083,"71":-0.06421996585669881,"72":-0.1463700265234854,"73":0.056416703729689106,"74":-0.12253928626848881,"75":-0.1720510698782069,"76":-0.5236096508879169,"77":0.04298384420527835,"78":-0.08176344559999645,"79":-0.1253847908779035,"80":-0.07671184534772571,"81":0.06693044811396864,"82":-0.007612767428279608,"83":-0.09416159329962008,"84":-0.08907470795780821,"85":0.03017565192510567,"86":-0.15945471637009653,"87":-0.03081121509603479,"88":0.01648229976510195,"89":0.08217435194549054,"90":-0.18354739609179946,"91":0.020660097777343595,"92":-0.06659533947442034,"93":-0.12959920800392988,"94":-0.12660501538140334,"95":-0.20839650550367816,"96":-0.21155511939428726,"97":-0.08381595137812733,"98":-0.05652605366985079,"99":0.003324960227917217,"100":-0.06318319170469744,"101":-0.1665065589391596,"102":0.34759680968125967,"103":0.06382339311591348,"104":-0.4814798436535574,"105":-0.18127674957918455,"106":-0.3303645096911516,"107":0.0021432823305027665,"108":-0.13643369191335517,"109":-0.33005664826763387,"110":0.1225287140351056,"111":-0.23990154596652963,"112":0.15251842705765536,"113":-0.2172669012704868,"114":0.0846145110328859,"115":-0.35928834675932675,"116":-0.023797179539143575,"117":-0.031324652986393746,"118":-0.02499721203942154,"119":-0.0657391138204094,"120":-1.3910710669110025,"121":0.18494633545690603,"122":-0.2647887591967305,"123":-0.18321961709157242,"124":-0.07348998333907802,"125":-0.2951522389967974,"126":-0.11907260891846741,"127":-0.27341749223245787,"128":0.32919657267808117,"129":-0.29730755268190207,"130":-0.32269352682544644,"131":-0.4726447228631336,"132":0.44783368784053446,"133":-0.2565158172579069,"134":0.0031641977440011906,"135":-0.050956901166935326,"136":-0.03022267149932521,"137":-0.2567437991330091,"138":-0.6660168206116376,"139":-0.4153049815807021,"140":-0.7812896402619026,"141":-0.21556728562027885,"142":-0.2460197020569102,"143":-0.0730226681546734,"144":-0.2564235687318965,"145":-0.15608638975325434,"146":-0.08967195298729382,"147":-0.04451486042691657,"148":0.11151218378009325,"149":-0.23118305739860676,"150":-0.4187328783865521,"151":0.02957706922084935,"152":-0.03999871579976075,"153":0.0229252488435168,"154":0.0155863970758017,"155":0.047164910083307615,"156":-0.21512441381934366,"157":-0.2720911677631166,"158":-0.00369192596144896,"159":-0.1580275482744634,"160":-0.14625250711361476,"161":0.09495950790387125,"162":-0.013539972250035172,"163":0.046099213154266336,"164":-0.03269470616548806,"165":0.09971327401272767,"166":-0.15940545157148162,"167":-0.12326123895381341,"168":-0.026926378020548397,"169":-0.1677639996294482,"170":-0.08375291019694407,"171":-0.13231568317807543,"172":0.04423130234023311,"173":-0.0436186008052098}},{"sx":1,"sy":1,"depth":174,"w":{"0":0.0017978634327099796,"1":0.007913632456963412,"2":-0.04781447328203019,"3":0.09934400186816267,"4":0.2412735330593216,"5":0.09446800576220461,"6":0.0633874390449688,"7":-0.002035464553689133,"8":0.01684872919206739,"9":-0.06684199792152964,"10":-0.10090113893896582,"11":-0.08375282031569435,"12":-0.16932024356500477,"13":0.03906454655289604,"14":0.09827609552390307,"15":-0.09222822941050796,"16":-0.06691333941699362,"17":0.05045362207611964,"18":0.1656769860256302,"19":-0.17899586727983732,"20":-0.21247092133217485,"21":-0.1603063337886424,"22":-0.2409709442840689,"23":-0.11667398090622581,"24":-0.0241145075506824,"25":0.19285485743017225,"26":0.10628969881820612,"27":0.004096551848738379,"28":-0.06100834861536778,"29":-0.29621788205875205,"30":-0.1285293198970308,"31":-0.29236421705235477,"32":0.08541385460736425,"33":-0.2851623982454643,"34":0.00800157749707756,"35":0.05321978717245715,"36":0.035124325053788846,"37":-0.01663622614797286,"38":0.511334398932125,"39":0.24666248958944545,"40":-0.1257712110095269,"41":-0.34727218703179036,"42":-0.1111899066618384,"43":0.055879019223940445,"44":-0.14837952636549404,"45":0.1003095002662939,"46":0.09581292705917338,"47":-0.5736465355591344,"48":-0.7348370672247218,"49":-0.5382563512630224,"50":0.3491483227173048,"51":-0.45726086050478837,"52":0.022846677625069207,"53":0.1144169038155123,"54":0.025489712878081463,"55":-0.14391146950790326,"56":-0.2363001813613172,"57":-0.5456493109031063,"58":-0.28906415801514346,"59":-0.2422926915748478,"60":0.04000622235031613,"61":0.007504005915926835,"62":0.07954312338961507,"63":-0.03632042214355314,"64":-0.02903727308201567,"65":-0.46551330775649646,"66":-0.3558117460091064,"67":-0.39853455733012877,"68":-0.11247211612969832,"69":0.18722258590289972,"70":0.0537142136889281,"71":0.08329639989560983,"72":-0.03681520515262466,"73":-0.007800324047796783,"74":-0.01146245752604746,"75":-0.29984734015887315,"76":0.15203252154516209,"77":0.03630426851281214,"78":0.04052028892169385,"79":0.0396191074578491,"80":-0.02728791915740204,"81":0.049002559453300135,"82":0.21164981073731934,"83":-0.06112764342967883,"84":0.07282153693017386,"85":0.291792360611412,"86":-0.004487663761259533,"87":0.05847037228561633,"88":-0.06892485070761867,"89":0.11415358326888862,"90":0.06090260393812314,"91":-0.008569779656485515,"92":0.044503648973360635,"93":0.06735288470424008,"94":0.013073793504957538,"95":-0.15706158677116186,"96":-0.03820917327739348,"97":0.016641013450627323,"98":0.0005955725826611244,"99":0.13609490891519288,"100":-0.12272691831010217,"101":-0.1178824110661939,"102":0.1962489453976481,"103":-0.10136044767567394,"104":0.14451192463950915,"105":-0.16653563167930768,"106":0.10013692883791268,"107":0.15042332238102,"108":-0.015040221524160768,"109":-0.17939322380089426,"110":0.30587540692310733,"111":-0.19681968417048917,"112":-0.046422338439351674,"113":-0.10800361143220819,"114":-0.4081943005216763,"115":-0.11895295566167043,"116":0.023327942614729768,"117":0.09732528001156543,"118":0.42144004334495194,"119":0.10900893345450971,"120":-0.3175122349657335,"121":-0.057926087610378,"122":-0.18295854333559747,"123":0.07334662786384875,"124":0.04266702819085643,"125":-0.07830454456621745,"126":-0.08503010802134248,"127":-0.23259998728174805,"128":-0.1499921609268915,"129":0.09150502186192987,"130":-0.09497677987587243,"131":-0.2602909473424696,"132":0.0960685819187935,"133":-0.20492280097917015,"134":-0.020403466583304528,"135":-0.04950640650153551,"136":-0.2988860285869229,"137":-0.01866430271093135,"138":-0.1278727491169274,"139":-0.12012507400650008,"140":0.45964963982008716,"141":-0.2117047174091088,"142":0.051215944232024524,"143":0.06278847200929119,"144":0.09201092889499474,"145":-0.0791340589221552,"146":0.15751074847654273,"147":-0.14102544660275546,"148":-0.13826450593859857,"149":-0.09793164506954974,"150":0.1302423294438913,"151":0.005980412747705286,"152":0.12575595801960307,"153":-0.047002759334235436,"154":0.13734371628894063,"155":0.04917161231017323,"156":-0.0667633604498266,"157":-0.013157889983098046,"158":0.2098801731492318,"159":-0.013738378925636075,"160":-0.06548048360399551,"161":-0.08735741520402567,"162":-0.05198258260057216,"163":-0.041192499423650906,"164":0.021133396167352617,"165":0.04899975229408995,"166":-0.15509917372386647,"167":0.13159969658210421,"168":-0.06421163421347685,"169":0.007028821247927037,"170":-0.1302982553023932,"171":0.13874394078353863,"172":0.19368293482830942,"173":-0.12214389420863413}},{"sx":1,"sy":1,"depth":174,"w":{"0":0.07414642908140988,"1":-0.15017971868295446,"2":-0.03844972217302788,"3":0.24936507237296116,"4":0.15636662821447664,"5":0.0000482468279955888,"6":0.007336828236883835,"7":-0.030655202924488548,"8":-0.14902761548553603,"9":-0.1318211768899419,"10":-0.05711472658571985,"11":0.0022818389769442313,"12":0.0967247344646001,"13":-0.16779921012420076,"14":0.001120384768607537,"15":0.04517394021206187,"16":-0.14320979041899742,"17":0.02227097190450753,"18":-0.03891874207884733,"19":0.23805201017430075,"20":-0.04106239734020033,"21":0.1818969790599264,"22":0.462170325519438,"23":0.22788503560175305,"24":0.011246950579730327,"25":0.03704018720270823,"26":0.037058119954642844,"27":0.10020507095543284,"28":0.1385775830599525,"29":0.16798335449683424,"30":0.678205284466644,"31":-0.39968918868118025,"32":-0.47101508669997944,"33":-0.4424702688307317,"34":-0.12199427479421057,"35":-0.06907075478674318,"36":0.20554382351285294,"37":-0.05324695597960398,"38":-0.2858043039720438,"39":0.885631589150794,"40":0.4356731616801952,"41":-0.3966144676331593,"42":-0.17984823236194053,"43":0.24456489332925224,"44":0.11666621510746536,"45":0.002176948836305251,"46":0.21629175463277145,"47":0.2606264494523608,"48":-0.31256591746682993,"49":-0.34181381731839566,"50":-0.32945948827053306,"51":0.28771277422563785,"52":-0.21219309949922713,"53":0.014694292636778418,"54":-0.0993208060102726,"55":0.16344276441972524,"56":0.22473684435956354,"57":0.25010177456729416,"58":-0.23892459203304617,"59":0.25485728328683305,"60":0.22165725742861972,"61":0.08003064055424125,"62":0.020687370410156877,"63":-0.052244629717176465,"64":-0.046976428391343375,"65":-0.08938110551143202,"66":0.2836958171871599,"67":0.02591884833919177,"68":-0.011928932307156038,"69":0.21944599553396993,"70":-0.1366778539526932,"71":0.11817054530105364,"72":-0.005283239014520084,"73":-0.1543073528422218,"74":0.08460179124215729,"75":0.01264642758333429,"76":-0.13624664201222103,"77":-0.03503308247778948,"78":-0.11191279362082839,"79":-0.03840749780076639,"80":-0.02230861094534174,"81":-0.09271387919906761,"82":0.03674182403724813,"83":0.02587494962050151,"84":-0.014645502659952238,"85":-0.24330941717113974,"86":-0.07772467626574257,"87":-0.14518718720897744,"88":-0.007043120174658541,"89":-0.04459729442706607,"90":0.029378730189233454,"91":-0.16181866935387737,"92":-0.12106091989082299,"93":0.02224894298281651,"94":0.29244129952551284,"95":-0.051902283962051314,"96":-0.15622653526842087,"97":-0.12482329420907469,"98":0.014780977741534208,"99":-0.026235863812697133,"100":0.04710910649227818,"101":-0.09708109807510441,"102":-0.12414344478837652,"103":-0.020173225448070507,"104":-0.22165003886451656,"105":-0.015462128438453335,"106":-0.15832596397316745,"107":-0.057626827693210744,"108":0.0033798772873962356,"109":-0.08362463618168774,"110":0.5847605269410026,"111":-0.07227995387868062,"112":0.028133511737777842,"113":0.07996463265888916,"114":-0.2428242937179261,"115":0.024893112921782968,"116":-0.2565338319001507,"117":-0.205693625349978,"118":-0.1926610187196855,"119":0.015042661989442528,"120":-0.34826946781232565,"121":0.09498764038426809,"122":-0.11325997127978911,"123":0.12981269836324205,"124":-0.09196833492005753,"125":-0.44971211159984414,"126":0.046174783370854414,"127":-0.11480504174396536,"128":0.16201893117834484,"129":-0.3941628946309007,"130":-0.0015487175935333716,"131":-0.2513493744147983,"132":-0.38299599956866887,"133":0.06622483002731752,"134":-0.20533927447126993,"135":0.012330897350861746,"136":0.21284177768113025,"137":0.12148008558191624,"138":-0.2887474653763547,"139":-0.034511872726097216,"140":0.271479507387282,"141":-0.024648498274050322,"142":0.25923018912127616,"143":-0.1476216736375581,"144":0.11351125573601216,"145":-0.02005532242521801,"146":0.13846179900515124,"147":0.08812222958491193,"148":-0.0033716776811864636,"149":0.04391406929890671,"150":-0.11308869219894699,"151":-0.046449977589984676,"152":0.003982664484441471,"153":-0.048704430611253006,"154":-0.06193150922419835,"155":0.05775978837083511,"156":0.11324471965414845,"157":-0.15622338046600878,"158":-0.08719602565347154,"159":-0.11881435167180703,"160":-0.039778519935767725,"161":0.11155032910662463,"162":-0.15570910894831075,"163":0.05322993075950785,"164":-0.20607457440313615,"165":-0.20939003533362024,"166":-0.1822480539441492,"167":0.19052020982087325,"168":-0.16745629309287738,"169":0.057057273561461216,"170":0.05210165591024384,"171":-0.10533200128242444,"172":-0.016672826713505933,"173":-0.020276491735253678}},{"sx":1,"sy":1,"depth":174,"w":{"0":-0.405664218209576,"1":-0.2548244875391971,"2":-0.30987942202531965,"3":-0.24284374152191524,"4":-0.09379035621308407,"5":-0.06623166416988813,"6":-0.08337820591432418,"7":-0.3110677615588634,"8":-0.42399693773362374,"9":-0.32535236095938086,"10":-0.35794998014223756,"11":-0.11709792350561023,"12":-0.2332270000018833,"13":-0.1322242088082439,"14":-0.10480212837968211,"15":-0.19598053475169752,"16":-0.3983738275699088,"17":-0.3930036438649413,"18":-0.2612549611354228,"19":-0.32386410897201096,"20":-0.24482665905121342,"21":-0.5375944285856114,"22":-0.3427139963103322,"23":-0.5159480417619667,"24":-0.07914803035784514,"25":-0.36493488679585495,"26":-0.2028622899866005,"27":-0.1492126528545819,"28":-0.3083877050253778,"29":-0.4306020312041335,"30":-1.1253847161465476,"31":-0.6709866272875905,"32":-0.8533743402366639,"33":-0.671330540948346,"34":-0.22830143470141842,"35":-0.11073101034874115,"36":-0.09514527155861184,"37":-0.5080943801909971,"38":-1.197736361414068,"39":-1.2068288774049352,"40":-0.30074670390435354,"41":0.559041371752837,"42":-0.5844408935838894,"43":0.036011648922583205,"44":0.349475534477757,"45":-0.17678452799803002,"46":-0.32790475610489367,"47":-0.4343047377331948,"48":-1.5581023788799397,"49":-1.058614043237723,"50":-1.1589023065589212,"51":-0.32038589049743826,"52":-0.009527284802021736,"53":-0.03380021843047558,"54":-0.23211203240971356,"55":-0.32598428656799255,"56":-0.34619464792707966,"57":-0.9090082876180239,"58":-0.3355443194596656,"59":-0.4304626275217072,"60":-0.023401472609550247,"61":-0.3708981127715811,"62":-0.02722115717781303,"63":-0.34227790846315137,"64":-0.4455750377307536,"65":-0.32814601749551287,"66":-0.3048264621991524,"67":-0.21653098731146875,"68":0.16919493039222305,"69":-0.08740533195825419,"70":-0.251882694521498,"71":-0.2735349983017479,"72":-0.5023550873165248,"73":-0.3710064199093081,"74":-0.28263372999280073,"75":0.025247180651486987,"76":0.08841755686712713,"77":0.18903673626296702,"78":-0.026090464125553867,"79":-0.4080227126836996,"80":-0.24919859424927565,"81":-0.21574252755124854,"82":-0.038226317992748955,"83":-0.030207018081509295,"84":0.12616486017817877,"85":-0.07148833831048963,"86":0.1772114789668319,"87":0.049391324713460596,"88":0.037632185991490964,"89":0.01114271297278212,"90":0.013307458667135003,"91":0.1303482139228388,"92":0.043161207493369706,"93":-0.015153454613338745,"94":0.020587728569646926,"95":0.017978790901681693,"96":-0.015521821095816178,"97":-0.020539752905672417,"98":-0.036080828478916256,"99":-0.0067517634473619895,"100":-0.04157869402307363,"101":0.03131830997449307,"102":-0.007882339598035035,"103":-0.015354441726830651,"104":0.0397650419940057,"105":-0.04761733115289999,"106":0.051749935120391916,"107":-0.010028717726715194,"108":0.02059437373498356,"109":-0.007189705688158993,"110":-0.04379201664757924,"111":-0.05245314076257423,"112":0.08683793307961693,"113":-0.06046690492998286,"114":0.04633631386757195,"115":0.016039422210209823,"116":0.048945333581802856,"117":-0.03758772593482024,"118":-0.13823276417360408,"119":-0.5660644724843125,"120":0.6803143324457194,"121":-0.27194062013629827,"122":-0.08429922048368964,"123":0.10724992892004209,"124":-0.053196596612400913,"125":-0.22909950220910894,"126":0.046906573379378015,"127":-0.052882348977350634,"128":0.1292599096521216,"129":-0.0007666960240578543,"130":0.1858499160011737,"131":0.08264211485082264,"132":0.20821956327598937,"133":0.049541159576083585,"134":0.0654684661687055,"135":-0.013685937647891522,"136":0.0005456704320918591,"137":-0.03656952544291288,"138":-0.06993152999974535,"139":-0.1148509912037699,"140":-0.32121966477318303,"141":0.1775953477032125,"142":-0.010088042301900324,"143":-0.03012163717147856,"144":0.1922786628584878,"145":0.0029950917485077728,"146":-0.03664242218726882,"147":-0.19188344704107865,"148":-0.10308949002079641,"149":-0.0503324029139788,"150":-0.016217053236909598,"151":0.07228316988886892,"152":0.08914120861467266,"153":0.1080344532579394,"154":0.025302006186443664,"155":-0.05388601600317797,"156":0.03469693404059305,"157":0.006044767364573529,"158":0.08011447927483953,"159":-0.1116013288081252,"160":0.05388852957947744,"161":-0.0253248240485951,"162":0.15018913357551258,"163":0.1922098651819192,"164":0.20314387318105803,"165":0.0717041878753767,"166":0.18662690190693645,"167":0.11155743170236385,"168":0.18290741338003386,"169":0.2637821503918577,"170":0.2197129061294319,"171":-0.07931529161188247,"172":0.09057203666830896,"173":0.1998480214221494}},{"sx":1,"sy":1,"depth":174,"w":{"0":0.08649586579937799,"1":-0.003734780863793049,"2":0.15903289438478116,"3":-0.03133871052826761,"4":0.06505697545913393,"5":-0.06959951987294376,"6":0.01633663086455916,"7":-0.011533243921368319,"8":0.0016662185741743397,"9":-0.019516290311239613,"10":-0.01270817909194291,"11":0.15068326483430158,"12":-0.0024086824525156444,"13":0.4765795289070231,"14":-0.05671637109325397,"15":0.05307988744594537,"16":0.033446015933545355,"17":0.054487766529002474,"18":-0.09151164746331258,"19":0.04316035850819427,"20":0.363879303975707,"21":0.3532311062771437,"22":0.5606526592320383,"23":-0.029558133130175766,"24":0.062017487945411565,"25":0.23675209565813832,"26":0.051943378571196144,"27":-0.04517458517147725,"28":0.1701179203743905,"29":0.09387102598765576,"30":0.9911305666753546,"31":0.3346445470598257,"32":-0.723496203552277,"33":0.1264030961630232,"34":0.12620188425962123,"35":-0.15050125137138162,"36":0.07746603603816951,"37":0.08169380029170244,"38":0.19029750192027586,"39":0.684365482325467,"40":0.2364556738368452,"41":0.26850361488783997,"42":0.8488784793346162,"43":-0.027504958740786838,"44":0.06617471279492508,"45":-0.15366005354985934,"46":0.08672753798670954,"47":0.15986390300489464,"48":0.367771160423826,"49":0.4842324438828727,"50":-0.5697973665514772,"51":-0.39064922804355035,"52":0.09930646287609979,"53":0.041188769706413775,"54":-0.03628855792299741,"55":0.060529137393367356,"56":0.1048817772939903,"57":-0.022087962405748868,"58":0.3421369133314486,"59":-0.1755269723398315,"60":0.11096380516997548,"61":-0.02383520022814052,"62":0.15976746313310267,"63":0.09118918163603254,"64":0.12772514978854874,"65":0.10073994025825804,"66":-0.09144920656711311,"67":-0.16300291364087927,"68":-0.1756750981283127,"69":-0.28424715034414444,"70":0.1944177197362848,"71":0.026045247954254558,"72":0.09245504475015338,"73":0.10987229273487174,"74":0.1959648982550812,"75":0.055653969206434194,"76":0.027632997064326918,"77":0.10002508445135526,"78":0.0404318495895169,"79":0.06558742684899438,"80":0.10527889770739153,"81":0.19892080504558524,"82":0.1762822939961227,"83":0.1395343703000826,"84":-0.035078630231304024,"85":0.19796707339585715,"86":0.010402678461008202,"87":0.12698213628359414,"88":0.18452048057020914,"89":0.14539545632559692,"90":0.09020278862159403,"91":0.22519241870124526,"92":-0.024393373955270303,"93":0.16018796687988412,"94":0.26511354040590956,"95":0.302431070519259,"96":0.05067238255146352,"97":0.1735098463477911,"98":0.16856878641294756,"99":0.09607192827270428,"100":0.10604438904785042,"101":0.210020473331477,"102":0.5061946987198405,"103":0.5810126642460592,"104":-0.08823465280652854,"105":0.19826802808861474,"106":0.08073368912850926,"107":0.14432977162729133,"108":-0.048898152937134884,"109":0.43019419092420985,"110":0.3337382933908577,"111":0.3344617276177681,"112":-0.2290520031712201,"113":0.1345305489062291,"114":-0.18376942958559733,"115":0.051595084545346094,"116":0.03355205227100086,"117":0.2944613801452215,"118":0.15601863225725518,"119":0.10341014125386634,"120":0.3050667486076464,"121":-0.16962178851541934,"122":0.3994360373680227,"123":0.17551837739040999,"124":0.4178767273402624,"125":0.268539164486313,"126":-0.06897837500110819,"127":0.005249165854014728,"128":0.04457511856754518,"129":0.6278022270759598,"130":0.09663727790824492,"131":0.6827181338526619,"132":-0.08554400426790235,"133":0.08009937941102777,"134":-0.02146192540333155,"135":-0.05051496736369911,"136":0.17274058027181574,"137":0.35244272066956894,"138":0.11502460069924583,"139":0.29003819733910385,"140":0.08924455214456059,"141":0.21324922280227182,"142":0.07915136230491841,"143":0.0675302916430068,"144":-0.028987044205723428,"145":0.24875238785829007,"146":-0.001267241240043109,"147":0.08125890302108352,"148":0.21073822108598605,"149":-0.09544734706994183,"150":0.30267564135223635,"151":0.08870531387649395,"152":0.04051698973666264,"153":0.15405887858018003,"154":0.30973980691330155,"155":0.14279797470940164,"156":0.009462121115259512,"157":0.10155022481956347,"158":0.0003175370105032328,"159":0.294101428921896,"160":0.19230891723177043,"161":0.0676911855652434,"162":-0.15068521783555794,"163":-0.0076910536598696734,"164":-0.3612016020020856,"165":-0.12807381209734114,"166":-0.12888802857982748,"167":-0.30020807281294754,"168":-0.13097575305385273,"169":-0.3514967823950183,"170":-0.054780920024293245,"171":-0.38226296026336815,"172":-0.011196984486824102,"173":0.043445053796688525}},{"sx":1,"sy":1,"depth":174,"w":{"0":-0.14878875501208227,"1":-0.15445174006763485,"2":-0.027378525700236037,"3":-0.24174776693603053,"4":-0.24523133031633668,"5":-0.16015664472420507,"6":-0.15496000463428433,"7":-0.18675895297347467,"8":-0.2532088314820949,"9":-0.13242589618476144,"10":0.15639834668114716,"11":-0.04814516344127132,"12":-0.1678473700549034,"13":-0.22406608594662972,"14":-0.2364335843073544,"15":0.010192765597717927,"16":0.11948146283670967,"17":-0.11060779722033252,"18":-0.12586259529983718,"19":0.06691431086238413,"20":-0.03380046441616445,"21":-0.25852740052456574,"22":0.14888445212388135,"23":-0.10637065705384062,"24":-0.10093514706486889,"25":-0.07905935671928513,"26":-0.20845622715001186,"27":-0.20370284455618284,"28":-0.004467194680923394,"29":-0.1835812472507883,"30":0.12634723057487612,"31":0.7749078987486538,"32":0.012075353415724951,"33":-0.1733145709002015,"34":0.09658334964778369,"35":-0.11152045311154375,"36":-0.22952879849540916,"37":0.08162050792664852,"38":-0.8581176939881986,"39":0.16822871923603946,"40":0.365822393076922,"41":-0.8752687613646347,"42":-1.4590913915361374,"43":0.13389990497629242,"44":-0.10472016762233935,"45":-0.258184104141212,"46":-0.14191943299402618,"47":-0.530442941741207,"48":-0.6301226503139562,"49":0.0541785381018387,"50":-0.7707524367880298,"51":-0.39944447833529434,"52":-0.17967689316023283,"53":-0.18860744824110443,"54":-0.40958512738701824,"55":-0.2819548154462236,"56":-0.04167301869063325,"57":-0.3757226182221974,"58":-1.0660612375863383,"59":-0.4129107185331258,"60":-0.024621478698758387,"61":-0.15499875342602235,"62":-0.1857304246981781,"63":-0.13391881548007412,"64":0.03196114569057564,"65":0.005375814480870313,"66":-0.16880745975994202,"67":0.12955583785177027,"68":0.1463924312666988,"69":-0.10979550855994692,"70":-0.15938904777372007,"71":-0.24295470206855568,"72":-0.15063489999227525,"73":-0.3235668683876666,"74":-0.08431825856597507,"75":-0.1629061228232161,"76":-0.21173128056851742,"77":-0.23332067756943992,"78":-0.19968015014534596,"79":-0.1422204700922069,"80":-0.2657232896374462,"81":-0.12263077410323746,"82":-0.34475386141201997,"83":-0.1532647744206378,"84":-0.03945043449058402,"85":-0.07506031112275895,"86":0.02091401806233929,"87":-0.14726678622166933,"88":-0.07460339179147184,"89":0.011738306594493054,"90":-0.3108274768577848,"91":-0.3351373364430139,"92":-0.28265129374976505,"93":-0.09394415084386733,"94":0.0767636367896776,"95":-0.30907675464535916,"96":-0.13023778682091244,"97":-0.40675743297280387,"98":-0.11003204440924569,"99":-0.0939441925370258,"100":-0.4010281698102254,"101":-0.28301200717950525,"102":-0.3790922303243686,"103":-0.6983433333193484,"104":-0.6858571662249006,"105":-0.19656987121404465,"106":-0.3601419316417611,"107":-0.08916985034277192,"108":-0.07169061629504743,"109":-0.09619603108748898,"110":-0.24719116214796977,"111":-0.6700843909255783,"112":-0.5710807205999201,"113":-0.67235376197821,"114":-0.2927502937498229,"115":-0.09317237975040463,"116":-0.04189784093478036,"117":-0.03632066706078903,"118":-0.9342273363686452,"119":-0.902533894795567,"120":0.4871410579890584,"121":0.7542507320479993,"122":-0.32344714130252605,"123":-0.4665550471100306,"124":-0.5113583703204969,"125":-0.46538124811733894,"126":-0.19370838065659524,"127":0.036854792971164486,"128":-0.38112032631827514,"129":0.06059113896818611,"130":-0.292761574500815,"131":-0.008679639309749012,"132":-0.3333131041518925,"133":0.03827019978927628,"134":-0.011123626323553388,"135":-0.03305943148060538,"136":-0.5320771594810891,"137":-0.31400566408238617,"138":-0.2709285125263693,"139":-0.3144312372826534,"140":-0.6537279437924673,"141":-0.35683264029404227,"142":-0.4521160294605393,"143":-0.19018324582255985,"144":-0.20109492451547845,"145":-0.1648892154865564,"146":-0.4737949547505393,"147":-0.3091627155325545,"148":-0.6055478344435732,"149":-0.2515753649520846,"150":-0.32439534779227824,"151":-0.4185251635014517,"152":-0.14605301731949202,"153":-0.0877129666911498,"154":-0.2510889073603382,"155":-0.19074028473062662,"156":-0.2946165160759418,"157":-0.4130733128733164,"158":-0.47574518281139144,"159":-0.29441715309522765,"160":-0.2982255831369978,"161":-0.059028531879398834,"162":0.15677595648380954,"163":0.19496500532029268,"164":0.15538979314904464,"165":0.18675575747774287,"166":0.1180636440354408,"167":0.01103936304970738,"168":0.16616338585136112,"169":0.025442317869841836,"170":-0.0104130752915919,"171":0.04583674995885376,"172":-0.003150843174698793,"173":-0.06550828360330564}},{"sx":1,"sy":1,"depth":174,"w":{"0":-0.014740710871742179,"1":0.07705734315197373,"2":0.06151030673220087,"3":0.0009271780534921527,"4":-0.06189758943176524,"5":-0.04548570645807765,"6":-0.045474681952910004,"7":-0.06892988401147893,"8":-0.007144002100634394,"9":-0.01828128315274707,"10":0.004037441191732759,"11":0.008136175146903062,"12":-0.01765407263916035,"13":0.03669655391112022,"14":-0.06272253771772913,"15":-0.030066421861040478,"16":-0.1890064125890231,"17":0.07531193381745395,"18":0.055938639959716104,"19":0.09179718890503769,"20":-0.10913884203390513,"21":-0.09691015903669176,"22":-0.8448454944472612,"23":-0.5405103288847527,"24":-0.17150499393961893,"25":-0.3002486042303635,"26":-0.02697463698545393,"27":0.09036546548075508,"28":-0.1504067505897409,"29":0.029328689734236683,"30":-1.2572879803316697,"31":0.6412170436813395,"32":-1.239684723039806,"33":-0.6874425058874281,"34":-0.4493958080364099,"35":-0.07593875602388703,"36":-0.04541690408585078,"37":0.036966509070449995,"38":-0.2909697726534212,"39":0.8638453532371825,"40":-0.7128569418810435,"41":1.2781728858660424,"42":-0.7645551171149069,"43":-0.10061819507410066,"44":0.03198060302543402,"45":-0.012831420345684325,"46":-0.118281092416295,"47":-0.19620357743704755,"48":-1.2765319678299956,"49":1.3918880651987047,"50":-1.3336337724860394,"51":-0.15044737478049772,"52":-0.08532223679053966,"53":0.052981154363579426,"54":-0.07155914248777671,"55":0.15012487352166673,"56":-0.13757742378731813,"57":-0.029141961577754127,"58":-0.5827733404239621,"59":-0.28575440918814893,"60":-0.09126076449025303,"61":-0.049903532021317164,"62":-0.05420648719760069,"63":-0.012800288915901159,"64":-0.1746825989254566,"65":0.02480220342317536,"66":0.01964213729228591,"67":-0.299081381640337,"68":-0.16092227398029635,"69":-0.2014338094221852,"70":-0.09576078236952172,"71":-0.009368937792839272,"72":-0.011515077431685948,"73":-0.025015535016530515,"74":0.16019001616974446,"75":0.12902652032315934,"76":0.10103829915653562,"77":0.0463234845415436,"78":-0.06998547561813491,"79":-0.014804537997262172,"80":-0.015275566336677157,"81":0.06468129927385248,"82":0.0803559383423226,"83":-0.017430687644612444,"84":0.022546365272330914,"85":-0.21375116724648838,"86":-0.06193022434431812,"87":-0.033658553178958356,"88":-0.024345159876687728,"89":0.059239612866593794,"90":0.003225422854112345,"91":0.16465760369506519,"92":0.05521794152009213,"93":0.17252980994432318,"94":-0.3800620256924155,"95":-0.09017307894701991,"96":-0.11656978157483582,"97":0.016368171273984634,"98":0.11943550339384446,"99":0.007016582359506754,"100":0.06065762346863907,"101":0.05145303838134994,"102":-0.23596109537076734,"103":-0.06577398792244495,"104":-0.04878783284686658,"105":0.07044858989809596,"106":-0.05641420400404492,"107":0.13561121849513882,"108":0.25868713030057355,"109":-0.004361239750227652,"110":0.01771153777124814,"111":0.36263220593396983,"112":0.275045835103704,"113":0.25064582106383254,"114":0.010575238603665535,"115":0.2355931220568374,"116":0.2843175434090561,"117":-0.1250200695926814,"118":-0.23329606669910916,"119":-0.2231876474946953,"120":0.08645276164808445,"121":-0.45380416984667027,"122":0.4416251515214671,"123":0.12056040529978174,"124":-0.07589587227562355,"125":0.043278051967577585,"126":0.10002980342539702,"127":0.044181763865566416,"128":-0.03601742559980545,"129":0.34545615301061217,"130":0.4007155502563868,"131":0.2191119943379974,"132":0.13318674037892297,"133":0.09034872797337638,"134":0.007251606642235141,"135":0.10654122887599526,"136":0.2925672090730704,"137":0.09757961034292158,"138":-0.08144977971134926,"139":0.3907571884200977,"140":-0.03521549358765851,"141":0.08102342249329528,"142":-0.14516689050809764,"143":-0.0300885093959689,"144":0.05156878258826178,"145":0.15822114427202866,"146":0.012161257640011535,"147":-0.13441500667873765,"148":-0.35669996192678316,"149":-0.13192550842129572,"150":0.03724992498178842,"151":0.0591928053136537,"152":0.14710406460036932,"153":-0.09405539854729227,"154":0.1117625726148846,"155":0.10354859503004153,"156":-0.026089191976964417,"157":0.08542736341909044,"158":0.054193871378098876,"159":0.06405971420174604,"160":0.056171814804936555,"161":0.03605977715059805,"162":0.10664224163536869,"163":0.1148864394869841,"164":-0.20017619928221683,"165":0.13794700213630168,"166":0.13340136278635262,"167":0.1597121837717808,"168":0.17695613362118853,"169":0.08022963838617816,"170":0.16048629073935003,"171":0.30219311668751087,"172":0.192130274567007,"173":0.10944715963381253}},{"sx":1,"sy":1,"depth":174,"w":{"0":-0.11895107383364652,"1":-0.06507143141081587,"2":-0.024339564440991297,"3":-0.14864058392379942,"4":-0.23008162912992436,"5":-0.20326158558864943,"6":-0.13856810838277794,"7":-0.08489695006403579,"8":-0.12708882096213264,"9":-0.16654772798657946,"10":-0.09444556545332627,"11":0.0654997200638345,"12":-0.08154336218750104,"13":-0.28974043986682324,"14":-0.14561817396659849,"15":-0.12047421591023912,"16":-0.012269807026172117,"17":-0.09898642198074699,"18":-0.2187570638257848,"19":-0.06952845591000345,"20":-0.06667762257028463,"21":-0.17288861205795356,"22":-0.2661509812693544,"23":0.021191902890036043,"24":-0.23753037524435514,"25":0.06717235539385821,"26":-0.16936043305097598,"27":-0.19424029790335096,"28":-0.027586676571097302,"29":-0.2468168109153687,"30":-0.0828096984465046,"31":-0.3193512755704514,"32":-0.016522125607035257,"33":0.15657332711440217,"34":-0.16810812691900193,"35":-0.10428490965603705,"36":-0.13088148960617163,"37":-0.16979130628225828,"38":-0.18963968742467893,"39":-0.45362377995712333,"40":0.022797757279445847,"41":1.4886196923514186,"42":1.4120816653056563,"43":0.009155600034702201,"44":-0.14592901570029762,"45":-0.14757898735934633,"46":0.14676028403778138,"47":-0.09117724299660727,"48":-0.5781420731869426,"49":0.8643955181363273,"50":0.31905973194605314,"51":0.4042346837467655,"52":-0.06489175019024798,"53":-0.1036494897549313,"54":-0.11057237294573595,"55":0.037959427584035865,"56":-0.015444672409004727,"57":0.013997043376653471,"58":0.35279915938544665,"59":0.17795345822341135,"60":0.21616264963386828,"61":0.11221783810684545,"62":-0.10853405692387112,"63":-0.16498928350480438,"64":0.04989522372963489,"65":0.12197625928030975,"66":-0.12253162906477852,"67":-0.1941362589206158,"68":0.047148224033488104,"69":0.15410379887544387,"70":0.002638602560018932,"71":0.058797234886137126,"72":-0.13813885959053016,"73":-0.06894605650217218,"74":-0.01384689265637491,"75":-0.08236360014520215,"76":-0.3206914435956421,"77":-0.018221599062853113,"78":-0.09234022310885286,"79":0.032527108426566614,"80":-0.08074433000496135,"81":-0.10712791982111079,"82":-0.03378801318680096,"83":-0.03762420960483372,"84":-0.05900086885326696,"85":-0.08639574907706764,"86":-0.02149247579731703,"87":0.10290834623387045,"88":0.027339803560955205,"89":0.012286828622212637,"90":-0.1506007419125566,"91":-0.1493358584177266,"92":-0.07436738779462813,"93":0.0005382853610568875,"94":-0.29795956507965116,"95":0.01881971338732608,"96":-0.163219797268388,"97":0.05208334108820773,"98":-0.10964617262128883,"99":-0.24813420268660907,"100":-0.1813236702459618,"101":-0.19245931762458612,"102":0.046965583140618196,"103":-0.243007098631985,"104":0.1016107605402691,"105":0.08314738929290742,"106":-0.17645234672120613,"107":-0.07658258858081576,"108":-0.10502234032677822,"109":-0.04037052581206334,"110":-0.09438057991943524,"111":-0.532706803650518,"112":-0.2366735121500274,"113":0.04068529062028842,"114":-0.1420367964062365,"115":0.0889443157944391,"116":-0.15075010103268233,"117":-0.1284629701658797,"118":0.024923652532402304,"119":-0.20696596922303825,"120":-0.06687843165130886,"121":-0.012195220699067455,"122":-0.41197963905609747,"123":-0.07213440937758718,"124":-0.009080983344598073,"125":-0.027682201452370884,"126":-0.08726430212352392,"127":-0.06801350659997839,"128":0.06902258629986567,"129":0.2543697458217866,"130":-0.3106451644721422,"131":0.16247035447540592,"132":-0.22636913096111416,"133":-0.09736587363792341,"134":0.11783656149046064,"135":-0.10770635291756397,"136":-0.21366627981057826,"137":-0.19872032137460707,"138":-0.15543920600224714,"139":0.23670350031977053,"140":0.06998589515177439,"141":-0.1071703372125224,"142":0.05474771152949831,"143":0.033283506324036184,"144":-0.06873561490135933,"145":-0.010371212659443206,"146":-0.15373705339433136,"147":-0.19724671404578284,"148":0.14396817318271368,"149":0.16880759865090147,"150":-0.19111510775032245,"151":-0.09460175765943686,"152":-0.10065791033830707,"153":-0.04783042522964709,"154":-0.08931840128081604,"155":-0.09239686125290887,"156":-0.08449516087832169,"157":-0.07966146027771533,"158":0.0034318365011864133,"159":-0.19581646933647506,"160":-0.23751264726784754,"161":-0.046531912652878135,"162":-0.24683588259540823,"163":0.0014048997130464938,"164":0.010930530136809617,"165":-0.02668227826913711,"166":-0.22168227553643288,"167":-0.06986162381490038,"168":-0.2462605502401859,"169":0.024193773193861012,"170":-0.1127725022548721,"171":-0.11109272851189786,"172":0.005399382841413458,"173":-0.20787170530222848}},{"sx":1,"sy":1,"depth":174,"w":{"0":0.06951579856919703,"1":0.07340424977474887,"2":-0.11571383793678988,"3":0.057345770022964995,"4":-0.0775795944625489,"5":0.09920133695047267,"6":0.045156874376139224,"7":0.016697099602615947,"8":-0.01162945154822669,"9":0.11756013738400144,"10":-0.1001786326177114,"11":-0.05936195818925375,"12":0.1110598462965178,"13":-0.09604534118796623,"14":-0.10998478900076027,"15":0.002265931067381447,"16":-0.06964811546115046,"17":-0.04966161380615214,"18":0.16465050177693347,"19":0.00949478056881225,"20":-0.14902923539311627,"21":0.23859431670556788,"22":-0.07916426703593918,"23":0.19259058609601618,"24":0.06841431442341508,"25":0.1590542694697854,"26":0.09853630967594824,"27":0.08609119288992134,"28":-0.16115927720685339,"29":0.411331490079157,"30":-0.1612736104315894,"31":2.240894921859476,"32":0.13031402330264588,"33":0.1868833273697822,"34":-0.18627264082574796,"35":0.08067885310379434,"36":0.11829742352834123,"37":-0.020083891596248127,"38":-0.1653812967151374,"39":-0.17213709799627047,"40":0.056279829981882384,"41":-0.10510085327807524,"42":0.26018949003749775,"43":-0.0523006756392671,"44":0.22717849296560955,"45":0.04007720913489053,"46":-0.11945683428082282,"47":0.04072725865375298,"48":-0.49357163556272265,"49":-0.326230196916034,"50":0.26536353853970035,"51":-0.169113743069179,"52":-0.28338166923457137,"53":0.1284631064627083,"54":-0.10505444160646539,"55":-0.0039672168113998795,"56":-0.08770464664687122,"57":-0.2522711784459473,"58":0.08464892979338774,"59":-0.06171104435956768,"60":-0.1618246056594721,"61":0.07507163547156148,"62":0.030518109301696662,"63":0.005045829373827781,"64":-0.14485802034957626,"65":-0.09250527161682885,"66":-0.1164611977957821,"67":-0.3141819364626963,"68":-0.14347968523373947,"69":0.0774169563904871,"70":-0.11661364094481602,"71":-0.03985080158152914,"72":-0.06265302398013575,"73":0.007162653678373006,"74":0.07384962022092449,"75":0.02006006222101576,"76":-0.0922346516277924,"77":-0.03670474187250174,"78":-0.0011035334257399674,"79":-0.008783287975422239,"80":0.03284378738216015,"81":-0.1326851272403607,"82":0.013957651929849643,"83":-0.06188351507516727,"84":-0.2457620383980215,"85":-0.047985121992293905,"86":-0.07836513757041973,"87":-0.02394683210859448,"88":0.07241169702248212,"89":-0.12148055726725866,"90":-0.12974914314503502,"91":0.011635416969522026,"92":0.07117202265575359,"93":-0.1298063649413656,"94":0.10066168872821864,"95":-0.05908363182520447,"96":0.013538687614755173,"97":-0.010857359952009815,"98":-0.05092678606949306,"99":-0.1371558035377232,"100":-0.04137432992852745,"101":0.2006166229150314,"102":-0.2807568542460823,"103":-0.0040394321828000415,"104":-0.6710880379661427,"105":-0.13761005302366544,"106":-0.11508945404409358,"107":-0.03444394667269055,"108":-0.2529304769926498,"109":-0.04522908933477881,"110":-0.09633677409205131,"111":-0.08545088657788187,"112":-0.07205220281021628,"113":-0.39643375395327046,"114":0.28571856435720866,"115":-0.16226568454671175,"116":-0.1446621747704982,"117":-0.3340071059380288,"118":-0.3057829629052774,"119":-0.2369996326007359,"120":-0.28806610602860994,"121":0.48847078158856155,"122":0.06942984482475187,"123":0.11494918527693221,"124":0.24160614910242717,"125":0.15437832444294872,"126":0.030279617460651238,"127":-0.12846324148521004,"128":0.09286578040130596,"129":-0.23125913472429188,"130":0.005953287123500955,"131":-0.19750535832058094,"132":0.18325346269675263,"133":-0.09025375925943645,"134":-0.05937463856633851,"135":-0.0697979583106675,"136":-0.09286593471446486,"137":-0.15389907804128972,"138":-0.19701926686058702,"139":-0.12823632259544046,"140":-0.3644908795911738,"141":-0.0696434704984417,"142":-0.07898486967233034,"143":-0.04324746394150734,"144":0.02629124423516883,"145":-0.027689760444231507,"146":-0.22075581473797257,"147":0.03838594630611924,"148":0.18918057483239725,"149":-0.09705699771128835,"150":-0.10318155679795335,"151":0.07306890818147069,"152":0.10034809722335282,"153":-0.16693441349506055,"154":0.011017964958952497,"155":-0.029726821639722487,"156":-0.14453750732024906,"157":-0.16462383889315332,"158":-0.18930106547088957,"159":-0.07086433927527296,"160":-0.08543793460703858,"161":0.07573388720004491,"162":0.05220355920722946,"163":-0.04927304102128576,"164":0.0009249034580402303,"165":-0.08286773926231064,"166":-0.24442632854070057,"167":-0.07348812970345388,"168":-0.18741953657597837,"169":-0.1170682106134284,"170":-0.0282934832850858,"171":-0.1773848517914963,"172":-0.08184290488864825,"173":-0.10014493477742052}},{"sx":1,"sy":1,"depth":174,"w":{"0":0.030101314393456757,"1":0.04184999564686513,"2":0.1424695651621254,"3":0.007610232999985885,"4":-0.03595131231905942,"5":0.04311289808975941,"6":0.044771577775360144,"7":0.05254041586796932,"8":-0.08332072658240378,"9":-0.01092627472278325,"10":0.04793136702566418,"11":0.059750794951787894,"12":0.04754112018379424,"13":0.018133219605060466,"14":0.1769719278142194,"15":0.001964950080897994,"16":0.16817792010679558,"17":0.09020689715560518,"18":0.1508834487239585,"19":-0.04324412901751237,"20":0.17712330083608493,"21":-0.17677059921137744,"22":0.39853256174738827,"23":-0.04389088185304057,"24":0.18495602122002247,"25":-0.24372874515044327,"26":0.06513968885052611,"27":-0.027750801006673115,"28":0.010919671051607713,"29":-0.13056856914587472,"30":0.3111120392284395,"31":-0.18467873169308607,"32":0.6777640696997166,"33":-0.0034336670963743617,"34":0.18336124256708522,"35":0.1380946524546867,"36":0.08061856216331788,"37":0.09542340399850278,"38":0.6700436810594048,"39":0.28184881242718696,"40":-0.12519881813963302,"41":-1.2538859758923175,"42":0.3895789294804624,"43":0.2726949486375786,"44":-0.12480392290430775,"45":-0.003336230158510902,"46":0.03807582465261347,"47":-0.11640914458156355,"48":0.03492999284865897,"49":-0.1041412924672488,"50":-0.5541478335724664,"51":0.12403872810496666,"52":0.13742209257692528,"53":-0.019247865248599953,"54":0.06303708253440413,"55":-0.05758023792793887,"56":-0.0645727487710836,"57":-0.0984915091490742,"58":-0.22127762456284447,"59":-0.12852301249202175,"60":-0.06010139161025363,"61":0.01631755797757112,"62":-0.07385773898833263,"63":-0.030940815256325926,"64":0.17631119296671144,"65":0.1462525259586077,"66":-0.03814866069560069,"67":-0.218918167155288,"68":0.003673464591963254,"69":0.05883253493127546,"70":0.055318941465160594,"71":0.08388950174992744,"72":0.04381098839590946,"73":-0.06551851684836797,"74":0.09892761694391668,"75":0.05767985328618404,"76":0.236863035525007,"77":0.10133935572732909,"78":-0.031510168221907255,"79":0.1793445970149843,"80":0.15690293001152988,"81":-0.006702521084629817,"82":-0.05737387996177785,"83":0.04157287055641371,"84":-0.22110866121607026,"85":-0.2718878559731879,"86":0.022689992327085785,"87":0.0541843520263962,"88":0.006186947184407459,"89":0.011094436999930686,"90":0.013499307526627148,"91":-0.1021380685596029,"92":0.12721666350486113,"93":-0.16015672467579622,"94":0.4507399424472242,"95":-0.14956232077278409,"96":0.09786004756348265,"97":0.08592790598245537,"98":-0.06892738290924079,"99":0.03763510585878506,"100":-0.10941867807734576,"101":0.013077212230237369,"102":-0.2831575211910391,"103":0.020116152077829057,"104":-0.5468945460129342,"105":-0.03787331984299653,"106":0.09129481991360179,"107":0.013558819849258719,"108":-0.016403682196933257,"109":-0.18276445652031828,"110":0.16342535858524995,"111":-0.16757792875600097,"112":0.2489003542823454,"113":0.1649176894376602,"114":0.3397537947025201,"115":-0.3366327321888812,"116":-0.004743526489380092,"117":-0.13370320065409624,"118":0.300903202688359,"119":-0.23983911221098833,"120":-0.514326300115056,"121":-0.7452310536867449,"122":-0.41662596697712184,"123":0.09359070931667174,"124":0.104534737650928,"125":0.06666577801123813,"126":-0.06411357300756228,"127":-0.12687823975234808,"128":-0.4470936243956074,"129":-0.03273067076940015,"130":-0.1931714223569498,"131":-0.15008117455182868,"132":-0.13907399996625075,"133":-0.13852386391697752,"134":-0.08944776790622465,"135":-0.012847736078544966,"136":-0.028421030355437128,"137":-0.14695824362759616,"138":0.3109680534116095,"139":0.06495508564117991,"140":-0.1656887148516916,"141":-0.04528879917122688,"142":-0.22230577497139958,"143":-0.06260612577069072,"144":0.011362114103965851,"145":-0.03819343928468391,"146":-0.0915893736221973,"147":-0.2755713880672187,"148":-0.25180483354000227,"149":-0.037366500654846174,"150":-0.0933507735374877,"151":-0.07492622804856992,"152":0.05786509214678934,"153":-0.048242903398126404,"154":-0.047554274407979415,"155":0.029311634464929997,"156":-0.19014103517036487,"157":-0.07725821020980156,"158":-0.09788336983400707,"159":-0.09397420904874088,"160":-0.11333833688878968,"161":0.0010033305495919394,"162":-0.20514222716735495,"163":0.07813930500806174,"164":-0.15521181577256607,"165":0.0010509826706839804,"166":-0.21326167391273435,"167":-0.1378931615922974,"168":-0.12804466487624822,"169":0.10559230924159535,"170":-0.06420039484559366,"171":0.06696977034378132,"172":-0.16533236495772147,"173":-0.18298705194738007}},{"sx":1,"sy":1,"depth":174,"w":{"0":-0.05973103579462695,"1":0.04097939800259332,"2":-0.13180947798085332,"3":0.027115910404857134,"4":-0.045987053268786694,"5":-0.31243186085249075,"6":0.023955761559328815,"7":-0.03564589018106929,"8":0.013177992678341929,"9":-0.015154152496870044,"10":-0.013395813752630789,"11":0.030421245436378922,"12":0.0032574414857290917,"13":-0.15613199876808512,"14":0.17965967402893557,"15":-0.17611075858781602,"16":-0.001803203133407029,"17":0.022772032261760423,"18":-0.09881637713925162,"19":0.13900112561228892,"20":-0.049259659343146966,"21":0.06460114682219974,"22":-0.3687420686978693,"23":-0.15175552616888002,"24":0.11044987111660715,"25":-0.08240457234524323,"26":-0.052684314478742666,"27":-0.1749763127171942,"28":0.13373225315990292,"29":0.022961174618926446,"30":-0.392003432091178,"31":0.3620080157295941,"32":-0.8717029513202519,"33":0.31138504636715847,"34":0.1945089728342686,"35":-0.10532801292095907,"36":-0.11656971285653164,"37":-0.3068171671133462,"38":-0.45086630021875307,"39":-1.0213561536635005,"40":-0.08756148685537869,"41":0.9421261305578112,"42":0.46719990104400205,"43":-0.43340907500926795,"44":-0.28807025146858456,"45":-0.15497789461596861,"46":0.20195715773703332,"47":0.04785235347993086,"48":-0.48161252640935676,"49":-1.0783337864826146,"50":-1.022487225174811,"51":0.0457220279590517,"52":0.027695068482842873,"53":-0.09018149896266332,"54":-0.06597479505303384,"55":-0.02255470259208713,"56":0.2080737637630772,"57":0.06455355297057039,"58":-1.0931897675152324,"59":-0.10384603118602123,"60":-0.07215033091056809,"61":-0.0310109467341664,"62":-0.25857493048276914,"63":-0.06708113621586936,"64":0.060839593851421944,"65":-0.009860294578048696,"66":0.2745763639910245,"67":-0.19276214032750616,"68":-0.09312148259124256,"69":0.022024059000386363,"70":-0.01001425608954466,"71":-0.10719239337777053,"72":0.015828165302250296,"73":-0.011307904251814145,"74":0.030127881644456032,"75":-0.08822684540380013,"76":-0.005114502693927577,"77":-0.07177202246322699,"78":-0.020667560240948117,"79":-0.06459484571329346,"80":0.027622326645983696,"81":0.07956463098643995,"82":-0.044458460104512404,"83":-0.020001808454144225,"84":0.08112547462524682,"85":-0.1317670299669848,"86":0.06587594885267703,"87":0.08324252765642978,"88":-0.04497128955816225,"89":0.056004375584305696,"90":0.10918568253348973,"91":-0.02987386871974812,"92":0.1103998125800028,"93":0.17396874272242385,"94":-0.22980163929816672,"95":-0.03180005058726477,"96":0.2933457067246466,"97":0.12874120240736636,"98":0.11627710198665941,"99":-0.08275735259712375,"100":-0.06753979168650705,"101":0.07452337183320325,"102":0.023129741851519187,"103":-0.3102793644544603,"104":-0.19129317985016225,"105":-0.07553629965299635,"106":-0.02707676161796835,"107":0.026419281544499303,"108":0.25549016402429836,"109":-0.14534419928206455,"110":-0.22164078018939906,"111":-0.14139687672087844,"112":-0.06967083731446254,"113":-0.01759810679961214,"114":-0.3549850480020397,"115":-0.16386073055482203,"116":0.05132782318432052,"117":0.04846418821037712,"118":-0.06797523678818418,"119":-0.2563376463447439,"120":0.37029802185473726,"121":0.4123198710719463,"122":0.22560880226387156,"123":-0.19656986370197724,"124":-0.05169243160926307,"125":0.10449041418395758,"126":0.05077015362897106,"127":0.10659528570619324,"128":-0.3616538621945744,"129":-0.3609783714362557,"130":0.4122749955462345,"131":-0.3500685657321066,"132":-0.5208036193907427,"133":0.025027512303954728,"134":0.1528233949201652,"135":0.11714249229034983,"136":0.00526682154422674,"137":0.0055810445995020715,"138":-0.0189206655977189,"139":-0.109340300673864,"140":0.08159678362382748,"141":0.034957384653160145,"142":0.11661840738344266,"143":-0.02597472244206897,"144":-0.08308260276806408,"145":0.07625977641737822,"146":0.013355343114064337,"147":0.35962475592174453,"148":-0.5579384395578478,"149":-0.029780396695504946,"150":0.22932924719128003,"151":-0.07762919017584546,"152":0.12546482916485183,"153":0.07692022891678262,"154":0.00425002589785731,"155":0.03870362832263183,"156":-0.009008389391750863,"157":-0.2316260166872451,"158":0.010795107771342047,"159":-0.13403985581587857,"160":-0.04716250231988453,"161":0.043410313313255566,"162":-0.14730803185096475,"163":0.09244636841590353,"164":-0.15802065963379847,"165":-0.036535093030734184,"166":-0.09157059685217225,"167":-0.12132696165001973,"168":0.12781736212223985,"169":0.15882784238814968,"170":0.0369723845266531,"171":0.045607356849718575,"172":-0.13225567271688457,